-0.03306484898 -0.3537785822 -0.01094033172 -0.07063079489 -0.4570195864 0.04915018377 0.02912789828 -0.4051396868 -0.1178812846 -0.3327909855 -0.4205444542 -0.2192513462 -0.3366211462 -0.3711261006 -0.1743086718 0.0542328581 -0.01932693897 0.06190474647 0.05956446877 0.0801018857 -0.4095405325 -0.1017003986 0.01440339056 0.03613406029 0.09811413933 -0.4317428698 -0.2492326309 -0.06217318337 -0.052060311 -0.3566926529 -0.4207328883 -0.5102143279 -0.3553439934 -0.447379425 0.04068912205 -0.110750835 -0.1463651066 -0.02244466385 -0.02537070504 -0.2550422659 -0.1815734567 -0.2201999108 -0.5208094857 -0.3651843334 -0.09011760228 -0.4012967177 -0.1665316729 -0.1167939191 -0.136301754 -0.2677797516 -0.1179383293 -0.1204779009 -0.1401309755 -0.2358044527 -0.2856433466 -0.2272081755 -0.185612767 -0.4162083697 -0.4075632577 -0.3537904584 -0.1412652196 -0.09054970105 -0.5034069302 -0.3573778533 -0.4731844162 -0.04875768211 -0.4909953486 -0.4826405613 -0.4523342738 -0.08130953833 -0.3135651808 -0.3928490595 -0.5449736556 -0.6326394579 -0.5985026824 -0.3794312518 -0.3189246166 -0.4765808314 -0.7016350677 -0.2706832623 -0.2949536659 -0.4330821432 -0.3386855974 -0.4184957423 -0.06803392872 -0.4910519557 -0.06301765451 -0.566472144 -0.4128561051 -0.4376038063 -0.3736010076 -0.3000429907 -0.4779538913 -0.1466988398 -0.2459734438 -0.1830256535 -0.5472151917 -0.6410008393 -0.6352130593 -0.7302123392 -0.8003314432 -1.040806665 -0.9215184482 -0.8966070762 -0.9852851651 -0.8920956941 -0.689508728 -0.7361231824 -0.5582450392 -0.2603476126 -0.2296736316 -0.08161800373 0.05997651736 -0.1507923393 -0.3014664556 -0.01200817902 -0.2541277326 -0.2755555285 -0.5144323049 -0.3057786127 -0.1385854858 0.04601957124 0.03285940401 -0.1295507463 -0.1235440959 -0.2818969803 -0.3043595764 -0.1880752155 -0.2558982425 -0.1736103858 0.04029607666 0.2170722797 0.3342237655 0.3175323584 0.06724540385 -0.06805417941 -0.4853281793 -0.4858301908 -0.3106917043 -0.02928980534 -0.07792569423 -0.02532738473 -0.433885507 -0.2728450995 -0.3200954495 -0.6944608559 -0.4522136617 -0.3121920456 -0.2957019726 -0.0002025754444 0.1676079009 0.2896034216 0.2435866573 0.2204881859 -0.03162284631 -0.03757759338 -0.0804697355 0.1134063054 0.08152268464 -0.1294757197 0.122404546 0.01852698766 -0.1899904497 -0.4941155056 -0.6951204217 -0.7233055675 -0.2230205518 -0.07785796087 -0.03447460276 -0.06289661085 -0.3377168924 -0.2489820595 -0.2604010102 -0.318768561 -0.3065932612 -0.4278014443 -0.08765663333 0.177359274 0.09582145179 -0.07932181043 0.121801298 0.098866075 -0.2308451001 -0.1428098896 -0.1107256933 0.1202446782 -0.1193855858 -0.07066500712 -0.08694625835 0.01086236417 -0.1525812345 -0.22927505 -0.2241843021 -0.2819301016 -0.5297680994 -0.3190191259 -0.5089669562 -0.1412374011 -0.4196122206 -0.4334910452 -0.4662443782 -0.2117905234 -0.1304000982 0.1882515515 0.3313556558 0.2769992911 0.1510399453 0.1225253334 0.08337316431 -0.1823483733 -0.352730172 -0.4046723614 -0.3034509929 -0.2142883476 -0.1387728197 -0.142481278 -0.0355540709 -0.08919929737 -0.127502208 -0.1841077727 -0.2143658369 -0.2139242551 -0.4690267251 -0.01869817616 -0.3675997416 -0.2684951353 0.02641285546 -0.3330227006 -0.2805738617 -0.3574544242 -0.06342378898 0.2825952101 0.3356528359 0.247866368 0.1325399608 0.09907213142 -0.3913880384 -0.149752894 -0.251556619 -0.4134162332 -0.08870312682 -0.001679444753 -0.04409476545 -0.02255005697 -0.05198681754 -0.06531389139 -0.1195142111 -0.2055197361 -0.3471873385 -0.2383148563 -0.1327535855 -0.1422045107 -0.4198428198 -0.3201004473 -0.3231553453 -0.04108288895 -0.2720247492 -0.3552558772 -0.1042489191 0.2402842182 0.05927875973 0.1146107723 0.01119487475 -0.4608393102 -0.3359615157 -0.1929403318 -0.04428703255 0.2287854597 0.4559049797 0.4363903648 0.2128880967 -0.06772563247 -0.1227372094 -0.03284768827 0.06350433475 -0.2043001606 0.139790406 -0.1424616803 -0.3768589495 -0.2401198808 -0.009716609417 -0.2533921425 -0.1808706839 -0.08581044078 -0.2727456087 -0.1969613192 -0.2082509341 -0.3499418444 -0.1292618467 0.07796815635 -0.314912394 -0.1873156663 -0.1405609538 -0.00703901427 0.2436731296 0.3418906764 0.4812748518 0.5210537234 0.2937119608 0.003202431225 -0.0622557236 0.04775514207 0.1682440707 0.1150673047 0.4009178578 -0.2145102752 -0.1589719872 -0.5000009343 -0.2241159525 -0.3317187333 -0.329805939 -0.1201446182 -0.4144381971 -0.243594614 -0.675494819 -0.6385200765 0.07814472211 0.001051797039 -0.03583375972 -0.2460598469 -0.1692001731 0.1160594345 0.06537724431 0.01235361063 0.1886508201 0.3938909857 0.009605759091 -0.2100237136 0.005728599487 -0.1281998571 0.1693360801 0.03707650178 0.2774220417 -0.2739809855 -0.01997974897 -0.1530490464 -0.2177734289 -0.1416868214 -0.5563962324 -0.1665767244 -0.6436763263 -0.701046165 -0.8280351997 -0.2259202506 0.2756698659 0.1789325709 -0.06030462739 -0.1624423049 0.08011695879 -0.2649481862 -0.2389612189 -0.1020765931 -0.1156512713 -0.2065867855 -0.3868753373 -0.29574469 -0.1067537802 0.04317771856 0.3669979967 0.09939568841 0.4108419772 -0.2713136144 -0.3228145339 -0.3486612636 -0.1498524553 -0.1357249965 -0.5115965229 -0.2160260688 -0.6363397706 -0.8930163735 -0.5374676339 0.137069092 0.3517842217 0.4236234809 -0.1139351717 -0.4163450701 -0.3213299876 -0.2664020813 -0.0441251521 -0.2569714466 -0.2914555404 -0.468083256 -0.6575301293 -0.4101658248 0.1828442986 0.3367684084 0.1792857391 -0.0823015284 0.5258490786 -0.27431307 -0.408113321 -0.4440589574 -0.2107094442 -0.2924729634 -0.2659829682 -0.1644883217 -0.957151958 -0.8402632447 -0.1216520205 0.4838329854 0.4211672638 0.1438538549 -0.1614064864 -0.4067941678 -0.1852576966 -0.1138416589 -0.3259864445 -0.365158552 -0.2088730695 -0.4172441752 -0.7349263138 -0.4368102348 0.1431169856 0.3874222658 0.1793444641 -0.01975480414 0.3828209847 -0.233832363 -0.1843001503 -0.210125064 -0.3940081671 -0.1822607188 -0.3395231308 -0.6801695821 -1.189380776 -0.5993080096 0.3087390266 0.6132867508 0.3506804425 -0.1257970602 -0.2777898454 0.01168794103 0.1843097988 0.1377634423 -0.00138577504 -0.197799136 -0.3195775611 -0.4576933637 -0.543567616 -0.3455710371 0.3472897025 0.4448380291 0.1428347613 -0.2018923036 -0.4327227099 -0.3776597059 -0.468282946 -0.221964498 -0.02615762573 -0.05437570221 0.02848822678 -0.5352562682 -1.029824337 -0.3590472956 0.5149177027 0.4261794809 -0.02701091808 -0.3589999217 -0.3018460745 0.03488515026 0.5789551143 0.5785327879 0.3210575967 -0.19922499 -0.5118307882 -0.6272660323 -0.2995017042 0.07729657231 0.6549502217 0.2103578045 -0.1777376816 -0.5348259892 -0.8437829617 -0.3299661026 -0.3686451258 -0.2589533088 -0.2464274167 -0.0100660375 -0.1560446624 -0.8855484193 -0.9493443443 -0.2302332836 0.3150041418 0.0723329022 -0.5477104776 -1.097390665 -1.147708595 -0.8297228754 -0.6097841176 -0.4148749252 0.04361480585 -0.2631869793 -0.6984726624 -0.4700615913 -0.127242118 0.5140608299 0.6225401807 0.08723333397 -0.6944297211 -1.24955388 -0.8644235989 -0.3371205413 -0.3154429513 -0.3774744917 -0.2289698957 -0.3348567411 0.2772677912 -0.8284096346 -0.3647460394 0.05174615959 0.2178398621 -0.4921939457 -1.272553603 -1.997761123 -2.262994016 -2.714301879 -2.108738477 -1.140877531 -0.3778647185 -0.3822518297 -0.3891708704 0.2028719146 0.6262217274 0.7732617634 0.3286845403 -0.5896970412 -1.287859346 -1.277517936 -0.7909049142 -0.3235800951 -0.4461814293 -0.4032347282 -0.3287320335 -0.3343828215 0.4548832842 -0.3843952444 0.160555981 0.1638671969 -0.1699040908 -1.246549626 -2.280998258 -3.03605839 -3.248376353 -2.985657113 -2.114277563 -1.173388346 -0.3296641323 -0.03211481747 0.6874456564 1.06470665 1.133492386 0.262961078 -0.4724638655 -1.457973539 -1.668886286 -0.9063146239 -0.3367585317 -0.6496871453 -0.389967254 -0.2077112757 -0.4473067227 -0.1117657619 0.8552743591 0.7457674671 1.163158524 0.6887033367 -0.07812510423 -1.440210707 -2.657438207 -3.001385849 -2.816772545 -2.082612434 -1.532951765 -0.2694655138 0.7719854372 1.093441322 0.9278832814 0.5269332719 0.1714849653 -0.8213781141 -1.814727341 -1.702612275 -1.059238608 -0.856495753 -0.2995593784 -0.3468579741 -0.4557068641 -0.2170822605 -0.2631957067 -0.2267793376 0.7734163086 1.371833776 1.510242637 1.472713853 0.8701743943 -0.4694197569 -1.422164148 -1.863375139 -1.202202778 -0.1432815845 0.9458213006 1.782674314 1.521942967 0.6237016458 -0.05021385657 -0.4568638965 -1.309868708 -1.797461181 -1.703344476 -1.087062533 -0.9031188173 -0.6453065148 -0.232924534 -0.5509814201 -0.132332225 -0.3326093416 -0.06728006476 -0.1158046364 0.7089288813 1.339554064 1.919309659 2.241696134 2.008121272 1.540889578 0.6004071155 0.405050952 0.847540338 1.769391909 2.102586432 1.13689104 0.04697639271 -0.9883717249 -1.500956308 -1.930587134 -2.098514316 -1.466430115 -1.007089924 -0.6970636671 -0.6451458458 -0.6555775033 -0.4939204781 -0.1784771704 -0.2740362971 -0.2227611058 -0.08286740455 -0.4112131725 0.2713915499 1.365834473 1.921060276 2.371597964 2.215593911 2.092318797 1.881342114 1.886437789 1.86924874 0.9764462919 0.2589268545 -0.8834527172 -2.07285725 -2.302186883 -2.056956465 -1.878409392 -1.434979492 -0.8938512281 -0.9649950266 -0.4737511175 -0.2900673062 -0.5403151203 -0.4496547399 -0.4298916938 -0.428477972 -0.256251156 -0.3113293426 -0.4402034566 -0.2694232556 0.815404797 1.419108524 1.863198292 1.914061206 1.649949952 1.193614009 0.7291383353 -0.232032629 -1.381333769 -2.487591222 -2.702508341 -2.636925399 -2.019749813 -1.536279108 -0.9524213588 -0.7529860121 -0.5957291518 -0.4580929649 -0.2985272122 -0.1069854443 -0.5137944742 -0.3501147941 -0.1511743198 0.08820056295 -0.179869875 -0.3608631438 -0.389264447 -0.08555548466 -0.4448564025 0.02114030205 0.6495769776 0.9316744841 1.158957952 0.7831669601 -0.0487529 -0.9279781651 -1.80073647 -2.027349204 -1.811591916 -1.32164639 -0.9345390419 -0.7232772162 -0.5984467165 -0.7026424192 -0.1807117997 -0.5362913737 -0.4930170935 -0.2845008377 -0.4295225352 0.02411946001 -0.4619166198 -0.09329968173 -0.5164422534 -0.3645768719 -0.2535074883 -0.2146728706 -0.1504063492 -0.2647647404 -0.01609110255 0.6841538522 0.7683166465 1.258267157 0.7281099537 -0.3602381365 -0.7673113962 -0.6449940533 -0.8633243814 -0.5610227444 -0.7091075913 -0.6151345422 -0.3783468222 -0.4662288692 -0.1864287808 -0.3631267381 -0.1221616577 -0.4980260758 -0.07986931805 -0.2392880903 -0.3378493959 -0.3805434414 -0.2088240404 -0.2578658908 -0.5101259437 -0.2482456638 -0.09750658291 -0.3637739487 -0.1311163976 -0.1859337005 -0.4159731619 0.1040821822 0.225129274 -0.1506245841 -0.1257865947 -0.2909118837 -0.3786673731 -0.3090903697 -0.2174161221 -0.2504343478 -0.2344661816 -0.4791626086 -0.445870788 -0.2208926975 -0.003221480774 -0.4398898347 -0.3343979301 -0.01272831026 -0.0340487967 -0.02118966628 -0.2902713332 
-0.02163316652 -0.2596025809 -0.258209768 -0.07026970705 -0.1092181953 -0.1114748445 -0.4347979737 -0.3915853101 -0.2506015435 0.01266717109 -0.257684123 -0.1749794006 -0.3995329741 -0.1338329371 -0.3319866806 -0.1561602005 -0.1896559585 -0.2199583812 -0.353654453 -0.06252430003 -0.05882939994 0.06707652736 -0.1743751976 -0.07164915665 -0.0576032173 -0.06250138588 -0.022320823 -0.4080591049 -0.1151375889 -0.06307931943 -0.4714575041 -0.2160470539 -0.3938457151 -0.2874345252 -0.2351602385 -0.246726397 0.02092759832 0.2586909664 0.1334970459 0.2476574927 -0.1616132461 -0.3622021881 -0.1205686116 -0.1293834087 -0.203296197 -0.4214401516 0.08117736229 -0.3169137061 -0.1644248594 -0.05982062295 -0.3669132868 -0.03865802166 -0.359279537 -0.1007562048 -0.1539605762 -0.4064587125 -0.0886564428 -0.2325412584 -0.2416320202 -0.03052703857 -0.4277811784 -0.4577584502 -0.1075426223 -0.1245111506 -0.01924281577 0.5970616753 0.7713169627 0.0949765813 -0.5783291808 -0.6028966018 -0.3662203064 -0.730535484 -0.5246676372 -0.6818671515 -0.4237403538 -0.657790267 -0.36542551 -0.1345918868 -0.076049887 -0.128584072 -0.03317609147 -0.3041616309 0.1010244667 -0.09450504427 -0.333746972 -0.252406755 -0.1037945271 -0.2093345484 -0.2839587148 -0.4052638846 -0.02472778403 0.2152416041 0.5050206907 0.9676098939 0.941753159 -0.302882129 -1.508558748 -1.53425051 -1.230375696 -0.9740285888 -0.7850124524 -0.7559933184 -0.617746999 -0.5686756731 -0.7838295602 -0.8481296275 -0.4619974392 -0.370331835 -0.08932963913 -0.155740417 -0.4604816269 -0.3250455096 -0.1695122242 -0.06220997279 -0.3119248864 0.1392661941 0.06394921807 -0.1586395667 -0.5294444629 -0.08111321494 0.3303335676 1.291257189 0.296472294 -1.100338084 -1.568033349 -1.671909212 -1.924024613 -1.744761229 -1.588376094 -1.5687476 -1.155785543 -1.29751876 -1.495283186 -1.659309904 -1.312300092 -0.7426404538 -0.6405049817 -0.1478192142 -0.03741432607 -0.2320002688 -0.1755189878 -0.340951784 -0.3708887721 -0.1183137807 -0.1095796339 -0.2904345515 -0.371201441 0.008522617196 0.8018766145 0.7770918936 -0.5128079309 -1.466433323 -1.577160367 -1.841600712 -2.499905431 -2.614047774 -2.712487401 -2.583536031 -2.420021693 -2.291247045 -2.255162252 -2.413828415 -2.012290951 -1.284577525 -0.7596399968 -0.4546698545 -0.1074204654 0.06786620987 -0.1180525423 0.07809701953 -0.008309075614 0.5695362302 0.4701086593 0.4437401219 0.2067176531 0.3990616534 0.3438368048 -0.01398753791 -0.7238983285 -1.140362967 -2.031277405 -2.51709494 -3.095723219 -3.339726067 -3.558725924 -3.433200614 -3.384244104 -3.039780546 -2.893544262 -2.666777356 -2.237571359 -1.272477854 -0.7110990204 -0.1804100037 0.2290036913 0.2224713317 -0.1901000826 -0.1085479147 0.3923806884 0.6205338571 0.6516614987 0.740008848 0.5684177955 0.4379027082 0.2705188606 0.08670295405 -0.1226721064 -0.7106865955 -1.219677005 -1.900952816 -2.618598998 -3.179095085 -3.683507657 -3.584165087 -3.438879362 -2.544682962 -1.623368781 -0.9770999762 -0.6121030855 -0.03603034738 0.4532986068 0.531465174 0.3836732168 -0.2124423957 -0.2191749097 0.4564920777 0.6540267438 0.4582399319 0.5087766584 0.2271059863 0.1181945353 0.2418317834 0.3812416112 0.5832213492 0.4205948669 0.279306811 -0.2248553814 -0.6591276326 -1.181058791 -1.886267273 -2.182401371 -2.208464062 -1.738402563 -0.783022016 -0.04158121654 0.5955786596 0.6621527345 1.019371699 1.092110116 0.8602537033 0.8061586812 0.2263621709 -0.2896145627 0.4318109354 0.3612534989 0.2936732384 0.1805500133 -0.02272312608 -0.07389737349 0.1464912829 0.2541864513 0.6326315389 0.7234475255 0.8471466285 0.5435935206 0.8085340475 1.17463152 1.629690771 1.668575873 1.455266969 1.44649638 1.177155297 1.208228372 0.9476306495 0.4867374523 0.5949557883 0.9404069896 0.9818058746 0.6025113133 0.1278318362 -0.02826384931 0.5056908263 0.7558549526 0.1321927424 0.03339486156 -0.2461186554 -0.01295507392 0.02096871375 0.1164200429 0.4213637557 0.5372876159 0.5066207761 0.3788472411 0.9362443741 1.477525418 2.105800975 2.03549721 1.801522097 1.406767074 1.310302848 1.248580189 0.7710465653 0.3612310476 0.3397740982 0.6580627664 0.7049130458 0.7207783482 0.09240186503 -0.2108163376 0.2783441749 0.5316583293 0.4226248243 0.1116794032 -0.07997967669 0.05752170763 -0.05622483636 0.08656226532 0.2187185596 -0.1740921717 -0.3588179588 0.3021199612 0.8088127422 0.9142726514 1.217127867 0.51501892 0.0415992743 0.1121919292 0.3681595905 0.791888276 0.5420420833 0.2156190178 0.1830730099 0.364635831 0.6116170819 0.1140047244 -0.4088614011 0.06126928645 0.2122296239 0.6889726193 0.4020150835 0.1088999475 0.3727514925 0.3397960675 0.09185137325 0.245192128 0.0278494019 -0.1093118783 0.1365756421 0.09118692331 0.260980349 -0.2083533385 -0.375013689 -0.8358070723 -0.9467612405 -0.6675484636 -0.3832324682 0.2244353378 0.371564823 0.2493043499 0.1753554158 -0.01793603158 0.3126214578 0.1534176486 -0.01406807437 -0.2369634196 0.1066975141 0.694568506 0.3512664429 -0.1459626346 0.1268041904 -0.1889534815 0.0116817165 0.01838947761 0.09896080649 -0.005602634612 -0.2480996804 -0.1534322017 -0.1261411113 -0.4450454243 -0.5451050316 -0.6252330652 -0.7890581209 -0.6088864245 -0.2234594679 -0.13568625 0.07590209646 -0.05155381473 -0.5270469872 0.06211516406 -0.06635301439 0.2276876288 -0.3538083996 -0.02794387289 -0.3618711789 -0.0006293535123 0.3885090475 -0.3180493043 -0.4788000929 -0.5802407944 -0.3969049482 -0.1227916199 0.2129134321 0.1249264866 -0.2333203656 -0.1136739961 0.07139332992 -0.2374078797 -0.4627307916 -0.4278760289 -0.393748537 -0.2900261707 -0.1700854721 -0.1367324036 -0.09743665937 -0.3529033804 -0.5690573001 -0.2319122353 0.1406146435 0.02089183154 -0.4166184491 0.07536887028 -0.4628103329 -0.03520040395 0.3780158057 -0.576754601 -0.7103827903 -0.8386865485 -0.5423108132 -0.3045285248 0.1109583785 -0.2056456132 -0.3962420953 -0.175317021 -0.08616004879 -0.2003480232 -0.3238852727 -0.6123258414 -0.3382944177 -0.3443979002 0.1353426284 0.188737978 0.1416184934 -0.2705980511 -0.4778146336 -0.0825856758 0.2530086879 0.1230810698 -0.2859558416 -0.2082682589 -0.3539543084 0.04769935669 0.08997854605 -0.7743355301 -0.8311713826 -0.8262353478 -0.4849711004 -0.1652970954 0.02697324373 -0.2813639152 -0.3170460011 -0.1672124174 0.02849424558 -0.2626858104 -0.3369390748 -0.4174197251 -0.4405171714 -0.2298341314 0.3492780749 0.6583822209 0.4603165173 0.2423915161 0.01499961559 -0.08605217486 0.2546504407 0.5968044446 0.112721293 -0.003314396756 -0.06906625041 -0.2407192862 0.08813651423 -0.6920089308 -0.6014945648 -0.2760014511 -0.2244215518 0.06302653992 -0.08400265424 -0.2304950989 -0.4200144143 -0.4178127854 -0.1446676488 -0.2397896799 -0.2404719864 -0.4201563257 -0.4813145649 0.2220650294 0.5334165359 0.8184216838 0.6735622471 0.2706209382 0.2028834645 0.3973506371 0.4946846961 0.3387307042 -0.1214348756 -0.3068577899 -0.427485156 -0.4600789097 -0.2651483709 -0.7733294238 -0.5598163681 0.2375943155 -0.0850161652 -0.03336878396 0.08343123991 -0.0150077287 -0.2255888983 -0.1731929428 0.1106115255 -0.08413083499 -0.183886657 -0.3179234985 -0.3374443695 0.1916888317 0.2793744643 0.3191606704 0.4850309694 0.04240586952 0.06484295224 0.4360916545 0.3822395767 -0.2103997288 -0.2585640896 -0.2191245808 -0.1985047302 -0.2441461442 -0.1225980759 -0.4610434922 -0.3393161904 0.2253457931 0.2053229442 -0.1267472284 0.1274908391 0.05480095266 0.1295453137 0.1627595688 0.07360740683 -0.009373965677 -0.2491894237 -0.2484146502 -0.005611053748 0.2492413037 0.06876188363 0.03756888307 0.07071331796 0.03461176582 0.1138082629 0.4781937052 0.3363105122 -0.3238042218 0.08602144458 -0.3752896904 -0.4787697743 -0.4093776139 -0.008770256156 -0.3762761048 -0.215021716 0.1862200457 0.1192084998 0.2202880696 0.13889664 0.07971311155 0.1318372136 -0.1160772482 0.3264429994 0.3310344532 -0.05326641974 -0.1212461431 0.206520183 0.2027137015 -0.04143814471 0.2010351609 0.04511023333 0.02306445745 0.1842662124 0.1552570952 -0.2149257356 0.07247932106 -0.1909617405 -0.05526920999 -0.08636503774 -0.2712022167 -0.1095154748 -0.1247994137 0.006894837733 -0.06734780766 0.1973922721 0.04009670379 -0.24957163 -0.0001474665567 -0.1392823601 -0.08860673468 0.2050268566 -0.0401466207 -0.08637864083 -0.1516818651 0.03890399952 0.1249104366 -0.03448231146 0.1555155457 -0.008319953947 0.1885973753 -0.1553638993 -0.3228970978 -0.3068502121 -0.05803529812 -0.4215514763 -0.08190853233 -0.4458899971 -0.001299975891 -0.1458658013 -0.1700229148 -0.3505077521 -0.5237605651 -0.4519513084 -0.3951862251 -0.3631949472 -0.291595134 -0.5844436147 -0.3165480767 -0.05263790782 -0.07813634438 -0.3746377523 -0.3868512782 -0.4932957054 -0.3588142103 -0.4906061732 -0.340085703 -0.1590971745 0.04698092265 0.1924313729 -0.1484715035 -0.141088918 0.09923437914 -0.1994397291 -0.315561112 -0.3959214052 -0.1978943255 -0.3340351512 -0.03767506431 0.1496663288 -0.4532534708 -0.6576763528 -0.19007245 0.1300969917 -0.1609357151 -0.4351391836 -0.1686753801 -0.2431055902 -0.6254140943 -0.7364685656 -0.708096665 -0.9316339933 -0.5585990984 -0.7453703825 -0.7708074422 -0.4714578877 -0.1655791343 0.04813919178 -0.2195239978 0.005582430842 0.1314124142 -0.4052702057 -0.07334943127 -0.2694426987 -0.1968309673 -0.2117829676 0.1885288487 -0.02026019574 -0.6753047682 -0.4021994383 -0.07972088184 0.2275575168 -0.00208737959 0.02533514798 0.02420951943 -0.09087601152 -0.375433729 -0.2786463889 -0.3003416671 -0.3496039492 -0.3002926204 -0.4934536708 -0.7530062912 -0.463784549 -0.5432087147 -0.08619111804 0.06770066124 -0.2530178062 -0.4168728031 -0.3265115586 -0.361698014 -0.4631337306 -0.3936554095 -0.1705952942 0.09148456296 0.02049080629 -0.2814443098 -0.2181093557 0.1240467722 0.1678014524 -0.1849744314 0.03520088015 0.045416051 -0.1457279178 -0.3652092536 -0.153367423 -0.0180228485 0.1972481773 0.3432572766 0.2837899263 -0.06737026675 0.1928202883 -0.09537169635 -0.09300213468 -0.2200096241 -0.4247565149 -0.4381627053 -0.09684005879 -0.2852542668 -0.3220706139 -0.4291137427 -0.1753001459 -0.1337653312 0.1392605737 0.1572497835 0.4661778456 0.2657069969 0.1007964162 0.2103725151 0.248606366 -0.1239651596 -0.4583305347 -0.08342468584 0.02894373104 0.533888027 0.9394240941 1.285230629 1.113479528 0.3495402808 0.3404886676 0.3721599517 -0.05639759114 -0.2791843148 -0.05574097812 -0.3603886386 -0.2709203077 -0.09454985419 -0.1379744534 -0.5148992621 -0.1915637738 -0.3992092324 0.2415857186 0.5035098279 0.7602559709 0.7960051963 1.306430382 1.596963691 1.787565993 1.75535421 1.666880273 1.737298252 1.505797388 1.468818095 1.076197143 0.7846537611 0.4728166929 0.5164892747 0.1882764267 -0.04171333654 -0.1408500104 -0.1804554183 0.0410557984 -0.4623447078 -0.2003027641 
-0.2152783612 -0.4971849212 -0.4762122513 -0.5532214439 -0.3531093381 -0.6696866578 -0.2767825634 -0.3909279804 -0.596044056 -0.5556108651 -0.588487356 -0.2047758757 -0.3836108874 -0.3535644142 -0.3680960287 -0.243685742 -0.1687923103 -0.4009603292 -0.2888294245 -0.4789833475 -0.2151992706 -0.2019373035 -0.6206223399 -0.6072081909 -0.6157650037 -0.5581162331 -0.6570223877 -0.3768489498 -0.1892201151 -0.568068637 -0.1399094112 -0.1915486359 -0.2858609774 -0.2355918601 -0.5811202656 -0.5966858742 -0.3169646216 -0.372126995 -0.5999123482 -0.4805031113 -0.6993634709 -0.288645512 -0.2766291339 -0.2567352152 -0.4652315931 -0.1462821272 -0.1827813728 -0.2382517452 -0.1079377884 -0.06979879066 -0.3120880727 -0.2027916289 -0.3082517931 -0.3458916078 -0.5714641169 -0.1257592058 -0.3122097206 -0.4502175711 -0.1637181178 -0.2130651066 -0.2004171368 -0.600470421 -0.6073424355 -0.4396449515 -0.6446634696 -0.7125525877 -0.2820760307 -0.09442811929 -0.187984343 -0.6908655218 -0.2740897372 -0.5385262795 -0.6015177387 -0.7235253956 -0.5812685761 -0.144899932 0.2044218689 -0.01205288268 -0.3810614919 -0.6190240028 -0.2977538315 -0.4697074063 -0.5253184967 -0.2012623144 -0.4663557542 -0.6185976794 -0.3078091613 -0.1891636402 -0.5184506942 -0.5712177384 -0.4129668271 -0.5699735185 -0.5494366097 -0.4338493751 -0.1993558921 -0.1350143061 0.009282053982 0.06046651922 -0.07269739799 -0.07251248091 -0.3683684759 -0.3044119923 -0.4178080576 -0.1644145952 -0.2333768937 -0.1414972731 -0.2511832571 -0.04013219065 -0.5384092545 -0.2214206376 -0.6499174711 -0.6853211553 -0.6216644583 -0.517611763 -0.2321302909 -0.4843324325 -0.5279961298 -0.6027797852 -0.7689776199 -0.8098059312 -0.7927628895 -0.2581470789 -0.2380790765 -0.06679867319 0.08953111127 0.0581627516 -0.08441378203 -0.2998136295 -0.3777159337 -0.6519605338 -0.3451430471 -0.410189975 -0.356041266 -0.1562105854 -0.05823913348 -0.02592323278 -0.1771940906 -0.1229788695 -0.4079601731 -0.1452855855 -0.1757745956 -0.247376178 -0.4483304184 -0.2309810401 -0.6655487212 -1.052985721 -1.095238035 -0.7067186673 -0.6218949473 -0.1871975854 -0.1051260715 -0.1155957092 0.01863000381 0.06663767434 0.1676377371 0.004008170382 -0.2830896116 -0.1635777466 -0.2081163918 -0.4017861499 -0.4274686455 -0.0408598728 0.01084739442 0.07227706546 -0.03567537254 0.2092278316 -0.1870402847 -0.475093254 -0.5400192195 -0.3267421727 -0.558703587 -0.3150951389 -1.108267684 -1.167161537 -1.082708323 -1.04649867 -0.7847107819 -0.4397977207 -0.1694043719 0.04651597062 0.002952119453 0.01427405995 0.1298798458 0.2000971876 0.01605407653 -0.09839208864 -0.093931663 -0.2527981315 -0.3126896445 -0.1010070281 -0.03819069291 0.1722980185 -0.007989046607 -0.2691240234 -0.6794974972 -0.3091682494 -0.5618258332 -0.7141567004 -0.17846312 -0.2402055606 -0.6677102759 -0.9203896092 -0.8705622189 -1.067183037 -0.736961439 -0.3223892053 0.03163181398 -0.0305865543 -0.1527086406 0.140532011 0.09571021235 -0.07278661735 -0.04117245037 -0.1370118377 -0.2828654345 -0.09664596102 -0.01377475908 0.1937919038 0.2697361932 0.3507982983 0.3893529967 0.3033185433 -0.2125306711 -0.2890023212 -0.3460015105 -0.02127275441 -0.051881319 -0.3033736358 -0.9241813576 -0.8842753417 -0.9682504819 -0.7615004967 -0.5585901255 -0.06883917558 0.1281158965 -0.09408565786 -0.07082518531 -0.06325468922 -0.07975278509 -0.2494416678 -0.3244069405 -0.2548050135 -0.3350755873 -0.08960135707 0.4544812023 0.2243265115 0.1399879968 0.3282877209 0.4509093033 0.1702961938 -0.157356627 -0.3596321336 -0.5597417396 0.2157903333 -0.2195993569 -0.3856821917 -0.5941205222 -0.5795031926 -0.6946922674 -0.8944303804 -0.4294869589 0.04272395219 0.009740649165 0.1011936998 0.01000360899 0.08159028233 -0.1991975755 -0.428392765 -0.3565491407 -0.4885872406 -0.5716777095 -0.02130545407 0.441252781 -0.1121918557 -0.3895811412 -0.2590990017 -0.2266621531 -0.0389935755 -0.3231244105 -0.3610543681 -0.3579808638 0.1129324412 0.06190334078 -0.3578520632 -0.2784006393 -0.2189584214 -0.4150104873 -0.6631872161 -0.355201121 -0.09824504565 -0.09452268002 -0.1196307293 -0.03237341044 -0.1377616894 -0.308360507 -0.4495315839 -0.461454908 -0.5355323648 -0.588679855 -0.2081700202 0.3224577793 -0.3976014558 -0.9290813362 -1.004423363 -0.6387309381 -0.2733349964 -0.4139445285 -0.3816576627 -0.5293709399 -0.0797828885 0.4819925422 0.1689625122 0.009704763553 -0.2392135789 -0.2015357104 -0.5954444973 -0.3434140568 -0.2216212619 0.03116551012 -0.3924157951 -0.0517385809 0.00849421344 -0.0147361656 -0.05805710675 -0.5063350517 -0.6039697025 -0.4899663058 -0.004521220126 -0.03148855881 -0.6465674483 -1.264934641 -0.9942927069 -0.6214638924 -0.2905999473 -0.2808393552 -0.6749693104 -0.1911905484 0.1843427872 0.3639869749 0.1261203236 -0.003697557306 0.111804533 -0.04165272893 -0.349743755 -0.5251245447 -0.3954415279 -0.06829644542 -0.4362056043 -0.2390204383 0.1164612589 0.2943611714 0.2626764775 -0.1912751478 -0.4266065026 -0.2315342437 0.1301268759 -0.4440531678 -1.5372553 -1.667242512 -1.359948412 -0.7877729033 -0.6638842144 -0.364828018 -0.4984665898 -0.5071638589 -0.4193962396 0.2238859372 -0.021792448 -0.0297555728 -0.1112834104 0.08341789737 -0.3726998008 -0.5932959456 -0.4862812555 -0.2175466603 -0.3572414995 -0.6208674569 0.02251184625 0.3884628261 0.328116674 0.129143136 0.1499914651 0.4282997863 0.4977986378 -0.961487329 -2.402879033 -1.945737617 -1.18432251 -0.8132971794 -0.4132706236 -0.5195002856 -0.3681896129 -0.1990755823 -0.322197805 -0.4188850333 -0.05379233839 -0.3256874026 -0.1874338413 0.1110191454 -0.2234924488 -0.787828597 -0.6983671336 -0.4346837396 -0.7011880302 -0.8521255418 -0.1336240159 -0.003633575839 0.132493674 0.1922337285 0.7335762987 1.290797939 0.79170188 -1.187135823 -3.025480208 -2.131494625 -1.183017135 -0.6975124586 -0.5998423391 -0.2754604342 -0.6757651002 -0.4394689433 -0.5728008733 -0.08366191829 0.04268992443 -0.2245574151 -0.3113141582 0.05088303032 0.007283596493 -0.3258883264 -0.6743211109 -0.5157735842 -0.6753211165 -0.821650394 -0.3286033286 -0.4925320482 -0.6054688778 -0.2732099092 0.92869522 1.990642319 1.220688931 -1.368395998 -3.255525024 -2.264645218 -1.457665821 -0.9911921484 -0.5545033741 -0.7793262475 -0.4796850506 -0.6702503362 -0.2901650406 -0.06946922288 0.1934591529 -0.1505199661 -0.2582319287 0.1853472819 0.06754727555 -0.2048454755 -0.3100823793 -0.2582124492 -0.3766825877 -0.242309204 -0.1997264305 -0.9378595206 -1.539923931 -1.523895601 0.8474540492 2.604166297 1.122139213 -1.682930213 -3.684139991 -2.232739947 -1.729061377 -1.273110737 -0.9028113076 -0.664837062 -0.4162485217 -0.6189435908 -0.5396477481 0.1702214927 0.244683201 -0.1221436592 -0.1068091642 0.1220811423 0.0134818325 -0.1233360465 -0.0582348804 -0.07391100978 -0.1073587258 -0.02136856897 -0.5187054042 -1.720613011 -2.532082715 -2.10735325 0.8045665882 2.89618238 0.9811270203 -1.82748533 -4.350939271 -2.325066727 -1.753700054 -1.329448876 -0.6761848824 -0.4005942582 -0.4035283567 -0.4730029655 -0.5182337117 0.2550424148 0.032271119 -0.1298939421 -0.08025911097 0.1019002356 -0.0784624469 -0.1682077036 0.1324285948 0.1132301061 0.1022565305 -0.06958146993 -0.727182961 -1.884979216 -2.845224213 -1.632132529 1.124742044 2.368609047 0.4224701722 -2.362990081 -3.95866588 -2.474186241 -1.7104207 -1.406861338 -0.7287095255 -0.427360589 -0.3234031702 -0.1824885449 -0.3284838272 -0.0261055927 -0.2412260902 -0.09891756961 0.1212990658 0.03934598989 0.03616179987 -0.1869500664 -0.06189022604 0.09093335564 0.1420985739 -0.1690440706 -0.8993616032 -1.644425969 -1.567627749 -0.6042826778 1.315797972 1.845222194 -0.3171536098 -2.750652135 -3.510727521 -2.369080144 -1.869246978 -1.254676122 -0.794731904 -0.7962858731 -0.5529061918 -0.6071051033 -0.2112589021 0.01664854926 -0.4233529017 -0.07606860697 0.2624790598 -0.008360043927 -0.1540766248 -0.1863430545 -0.1609647435 -0.1077573653 -0.02542595174 -0.02605117791 -0.6036253194 -0.8794630288 -0.5523172651 0.1104783114 1.16611598 0.8699357282 -0.7496618954 -3.016167026 -2.878020795 -2.042291996 -1.532594461 -1.120348391 -0.9139081501 -0.525446377 -0.2056466397 -0.3624895921 -0.1105070384 -0.06683231454 -0.3972593839 -0.3725153215 0.09858281128 0.04496288742 -0.1181538842 -0.4182445613 -0.5455831484 -0.5466753002 -0.2010207904 -0.0938900204 -0.3331929066 -0.4192360223 -0.09022014875 0.353259706 0.4856517241 0.1073840086 -1.212430195 -2.738098501 -2.286783054 -1.640018018 -1.196849255 -0.8348541549 -0.512382282 -0.1715256639 -0.3462189296 -0.5192151601 -0.3724222477 0.1767012425 -0.1212094918 -0.2342500919 0.2253617264 0.2723316827 0.1035833289 -0.407173521 -0.7920709523 -0.61830102 -0.1586965722 0.1846603565 0.1557524604 0.09847606105 0.1079650452 0.07356289196 -0.2645533447 -0.5951460508 -1.274761961 -1.959554828 -1.878405275 -1.294349434 -0.9903891512 -0.5315939959 -0.6462618197 -0.2056733532 -0.2473350414 -0.6847548448 -0.1718936996 -0.4940367435 -0.2749581717 -0.08527376372 0.3210025573 0.6386382682 0.3674699077 0.06896664138 -0.3668579403 -0.4667866908 -0.2473614514 0.2048850813 0.3614014712 0.311409717 -0.06759358668 -0.1875070939 -0.9002547632 -0.8822606817 -0.7513799156 -1.216778209 -1.370389328 -1.017013418 -0.9446171665 -0.4217842941 -0.2824430069 -0.1653733392 -0.2461282887 -0.6274106271 -0.3271803886 -0.5856225988 -0.08209012526 -0.1883571196 0.4988283856 0.4750673592 0.3869314247 0.3534790868 0.2847050242 -0.03636235954 -0.1001332133 0.3890210485 0.09329451787 -0.328369974 -0.3996190159 -0.4644123457 -0.815868534 -0.186391248 -0.1671116493 -0.7362877767 -1.133411203 -1.016763813 -0.6329483225 -0.5636142421 -0.6029606133 -0.6227888819 -0.1817800585 -0.4181146876 -0.6222637905 -0.1425627431 -0.5804656755 -0.04022510488 -0.1258173578 -0.4887919754 -0.3520541233 -0.7078860216 -0.7954115582 -0.9262204943 -0.3542524049 0.4527366061 0.0710658827 -0.2744210338 -0.1875301862 -0.2230210677 -0.1354680881 0.2562578715 0.2307083774 -0.6775059229 -0.8476281362 -0.4918404098 -0.5517500644 -0.6251932727 -0.4581149183 -0.450196267 -0.3908118227 -0.1221391891 -0.3707051837 -0.1170848756 -0.3668585934 -0.3040933923 -0.3737923092 -0.467040414 -0.6513494528 -0.787159023 -0.454803448 0.1084784474 0.8257338786 1.121489508 0.08437152969 -0.572893135 -0.3002347397 0.09760550721 0.03986220036 0.113470657 0.2810804609 -0.3985173529 -0.3946055525 -0.2012686037 -0.4569066192 -0.2193481764 -0.4589997826 -0.4906192619 -0.129616626 -0.3981803526 -0.3770495114 -0.168873924 -0.336038597 -0.3421045418 -0.4962610306 -0.5097983435 -0.6592923236 -0.4736137548 -0.3304338395 -0.1621984253 0.05597270756 0.6071695421 -0.08687055648 -0.2375114874 0.1496986494 0.2481313813 0.1375038718 0.5522828276 -0.2166572919 -0.06862571977 -0.7086759112 -0.554186409 -0.6102000606 -0.2095534012 -0.2627187791 -0.3044900522 -0.5383893866 
-0.09106831521 -0.3207195204 -0.6057056083 -0.2511151377 -0.496428454 -0.3672462692 -0.2888032314 -0.6009475358 -0.5124148473 -0.3599453481 -0.5542026579 -0.1801739082 -0.2846707956 -0.4559599563 -0.3350303409 -0.1210813528 -0.420900854 -0.3840874439 -0.3368792689 -0.4833700089 -0.6416732665 -0.6365692985 -0.4523933254 -0.3997874351 -0.4795575858 -0.5874468678 -0.5273436618 -0.4275759905 -0.2090992204 -0.5876956493 -0.2151023867 -0.1842039485 -0.5647220858 -0.5438596682 -0.2003203852 -0.392292236 -0.5349068739 -0.4822440056 -0.1743217731 -0.2719229012 -0.5803538074 -0.3244996932 -0.2511658381 -0.2935835322 0.1728470019 0.2347270412 0.004942676385 -0.3939426283 -0.2691175444 -0.4056941129 -0.3773423828 -0.1972224756 -0.1721585376 -0.1419985381 -0.5385798212 -0.2127341714 -0.5341852425 -0.704257916 -0.1926634492 -0.1149091335 -0.5830246739 -0.497492528 -0.04479305472 -0.544067316 -0.4847599499 -0.4011537637 -0.1093643621 -0.06187489855 0.06872362383 0.1490877643 0.7183153391 1.031259028 0.838983105 0.7378913726 0.7331773312 0.4367617558 0.2750197124 -0.02082073904 -0.4619781669 -0.08543377982 -0.6000058952 -0.3689724465 -0.1536139014 -0.7078132319 -0.3434173475 -0.5146250018 -0.5417671379 -0.5732401116 -0.4295338128 -0.2404085004 -0.3738499563 -0.2483367681 -0.5131532473 -0.4713717454 -0.4853818891 -0.4505773585 -0.5058010723 -0.2835418093 0.07350479623 0.3914777977 0.291628393 0.08375315808 -0.09327262967 -0.3573211603 -0.4264432573 -0.4833762745 -0.4973199113 -0.2415263267 -0.05248626431 -0.2511121482 -0.4938863539 -0.2936254938 -0.6518824411 -0.3902894104 -0.499838075 -0.2250759103 -0.1542438549 0.005556594026 0.08431533234 -0.1823853087 -0.5882251788 -0.4090899525 -0.3586071181 -0.4453391205 -0.6701648097 -0.4131889216 -0.3518022032 -0.3043852368 -0.02384287237 -0.0502179534 -0.3568971362 -0.6484464939 -0.9506627319 -0.9994322361 -0.7708624471 -0.4858649897 -0.3469558489 -0.4047261476 -0.2097560816 -0.1847369149 -0.3345807905 -0.578386055 -0.721019874 0.0537842149 0.2211517221 0.09507808027 -0.07975793714 -0.1232547706 -0.1053687236 0.1796520054 0.2568768059 0.04097701212 -0.1118736239 -0.2869286048 -0.2894282726 -0.2313460384 -0.1230146587 0.05234511118 -0.1694229718 -0.2964715445 -0.6081815539 -0.7713111205 -0.9392301541 -0.9454958635 -0.7678156229 -0.3146598377 -0.1508973566 -0.2200666853 -0.3911774254 -0.554589381 -0.1567459835 0.4563066023 0.4448962137 0.3243982926 0.292314009 0.1716652323 0.2631469057 0.4938650298 0.1108310769 -0.3339165056 -0.4369305753 -0.2655332336 -0.3173616833 -0.4675343299 -0.5590461148 -0.2621770969 -0.104412182 0.1023298076 -0.2806236997 -0.7946278511 -1.106618439 -1.31019584 -0.9816656673 -0.6061112434 -0.04362202598 -0.3805609348 -0.1207228964 -0.4804364288 0.1034893391 0.6087532495 0.4470404201 0.39045358 0.3018256099 0.01387400754 -0.04025315583 -0.1299081326 -0.5255634911 -0.8610558764 -0.5853555432 -0.5151132637 -0.5733117703 -0.6246962543 -0.5283566017 -0.3397083285 0.005949775251 0.4015598442 0.4166041904 -0.1253280497 -0.811304423 -1.131758151 -0.7053965488 0.1315189062 0.2016586009 -0.5937510937 -0.4588240038 -0.2145580712 0.3540962098 0.4293666911 0.455273458 0.1632750642 -0.05402444083 -0.1353534853 -0.2853743059 -0.5788259142 -1.107283307 -1.220880623 -0.7007148359 -0.2307146707 -0.1820672358 -0.7608914453 -0.8100342593 -0.8135184009 -0.6138484443 0.2040651004 0.7717528681 0.4108830475 -0.4044224199 -0.3669199554 0.1573355461 0.6345351069 0.4840432454 -0.4668858257 -0.08113084473 -0.1608673916 -0.2676786669 -0.2637154835 -0.08156358468 -0.0912814749 -0.09729224626 -0.3694658698 -0.3197493949 -0.5511208419 -1.013040517 -0.8058764801 -0.006900636673 0.2078532498 -0.3492746622 -0.9968713054 -1.086836069 -1.295137401 -1.080333553 -0.1090994357 0.6270433436 0.1656551338 -0.3535227611 -0.3674364353 0.1630139957 0.2504313888 0.5682065347 -0.1064792829 -0.3430566036 -0.7348323496 -0.785466027 -1.00458973 -0.4740638951 -0.1964762838 -0.05639324668 -0.1061036266 -0.1921822548 -0.5532902496 -0.6716345091 -0.2961257759 0.1018863398 -0.1149660187 -0.7450964334 -1.478247675 -1.600153256 -1.509058485 -0.9186453844 -0.2183564315 0.2665826974 -0.04767479828 -0.3464819907 -0.2033207382 0.2338183094 0.2859639582 0.3684927897 -0.4625387958 -0.5324264258 -0.5411484887 -0.7282349045 -1.032975847 -0.5971675244 0.005368974909 -0.1780373716 -0.4311162322 -0.7125928535 -0.4996503105 -0.234944526 -0.2477933963 -0.4982539491 -0.9378718785 -1.816482035 -2.033913549 -1.607313115 -1.030093916 -0.6097825084 -0.4423381107 -0.003301161095 -0.2746018207 -0.0433207752 0.003884852746 0.1780498514 0.6435072677 0.259512208 -0.4311568015 -0.1745404096 -0.2173779419 -0.5825367587 -0.6672688715 -0.2074245474 -0.008865333948 -0.3076460013 -0.6197802838 -0.6187330345 0.09898145633 0.08444862738 -0.3406167627 -0.8651261616 -1.130540757 -1.561396358 -1.100843207 -0.5179044516 -0.1692872766 -0.3279879526 -0.3910710351 -0.3300860273 -0.4135521013 -0.1178453056 0.0009109698752 0.1501710288 0.5689939597 0.2157490593 -0.4680798763 -0.5216484868 -0.5372126437 -0.6260238233 -0.8218226369 -0.02071152051 -0.1958413611 -0.6230386054 -0.7114622534 -0.3674480496 0.2146485136 -0.01738809115 -0.4941418219 -0.5679490071 -0.6179436764 -0.5063170362 -0.2255549475 -0.04917122445 0.04621774288 -0.3184145643 -0.3925966156 -0.02394346679 0.05233388974 -0.2755846381 0.03004412099 0.116093658 0.6879199037 0.06095974776 -0.1925495573 -0.6939826894 -0.6390359955 -0.3692457384 -0.5977280496 -0.1240257518 -0.1947273156 -0.7203324084 -0.8199252571 -0.1617579599 0.1980873357 0.002312760848 -0.3248539083 -0.2703817644 -0.3617316458 -0.2029437089 -0.2717257971 -0.4011050463 -0.5018797355 -0.4315392523 -0.1242560681 0.08186342092 0.1793042251 -0.2936113149 -0.01941435746 0.07294767473 0.57273784 -0.01985446935 -0.1710978219 -0.66466861 -0.6553278184 -0.1550240941 -0.4856667835 -0.144139324 -0.5625602419 -0.9139977257 -0.6783882656 -0.1251878137 -0.05241566551 -0.06513273806 -0.1260572914 0.01404214552 -0.4627399834 -0.704520815 -0.9997672216 -0.8143153534 -0.8561173292 -0.7379248685 -0.2666004507 0.1094845201 -0.1267952913 -0.5739364678 -0.1145673773 -0.2172316458 0.3822418196 0.007807163459 -0.2880865996 -0.3931261354 -0.6369752677 -0.306791808 -0.4532169921 -0.3694768152 -0.5922367119 -0.5621699607 -0.463846656 -0.405560185 -0.1764749333 -0.2652704986 -0.3650858776 -0.3855259951 -1.012923535 -1.210936416 -1.005142225 -1.01778475 -0.7107047676 -0.6098666487 -0.2601177464 -0.2043457847 -0.6820755812 -0.4883998731 -0.06015409909 -0.3200570502 -0.02341839975 0.1282505148 -0.1713405244 -0.5946121064 -0.239783691 -0.4141860131 -0.4059279031 -0.2578473386 -0.5673789206 -0.3232115968 -0.0855404763 -0.2053121342 -0.1879130672 -0.3633174485 -0.5271865063 -0.7727452853 -1.347909852 -1.281880923 -0.5082527753 -0.170173694 -0.1618021448 -0.3804853415 -0.1333959127 -0.6497622843 -0.8744668078 -0.2020093147 0.2423188017 0.01919722944 0.1051662549 0.241940109 -0.202606463 -0.2760629401 -0.4052299534 -0.301384304 -0.2877363596 -0.3871962103 -0.3252360352 -0.1679127856 0.1597784734 -0.0721367339 -0.2048959298 -0.1748077976 -0.3945168872 -0.8508159751 -1.154455519 -0.9099073425 -0.3078661198 0.120275988 0.1027056514 -0.06464352028 -0.3155263228 -0.7820371306 -0.6741528633 0.1765833036 0.3417530166 0.14374545 0.2967704872 -0.1997641667 -0.3086504495 -0.5440002431 -0.4777535626 -0.4386169351 -0.3703620682 -0.5323648997 -0.2789606682 0.07134833603 0.4038484155 0.09549744638 -0.3210972139 -0.4728582268 -0.4457964118 -0.8303185946 -0.8735267852 -0.9000704372 -0.4297836909 0.05635009493 0.2161844704 -0.2093604885 -0.5404587017 -0.7560888176 -0.3000883605 0.344850666 0.2270668244 0.2699874603 0.221792305 0.1558733208 -0.6036507833 -0.5863220437 -0.381622762 -0.317403545 -0.4898587027 -0.6505031213 -0.4613885561 0.09197630827 0.1510007088 -0.005603830915 -0.4769337502 -0.933493008 -0.7467884327 -0.6302277898 -0.6554702218 -0.6274460403 -0.4052053909 -0.3522907635 -0.4129753863 -0.4454136102 -0.5919942339 -0.4072528983 0.002321277332 0.2848872168 0.1806609558 0.2435959363 0.1485402365 -0.2759668308 -0.2050556452 -0.3929942781 -0.6023916273 -0.5827421119 -0.8125376816 -0.5778159242 -0.7414708829 -0.09904651719 0.1022213021 0.2341388469 -0.4102785971 -0.6512394428 -0.7138333946 -0.6279012014 -0.8790189806 -0.9570680922 -0.657106077 -0.9665002735 -0.7989926418 -0.665028747 -0.531442162 -0.242883249 0.1192733496 -0.06369604555 -0.0648147023 0.0764080739 0.02894918732 -0.1142102672 -0.5760473734 -0.3919184341 -0.5152880239 -0.5287203415 -0.6103057529 -0.6927211369 -0.8530758962 -0.4602747218 0.04770984841 0.2076333864 0.03905461169 -0.1624436193 -0.3291572023 -0.6034386609 -1.091862838 -1.342299497 -1.223743009 -1.006330736 -0.893643988 -0.3724012578 -0.2145570019 0.02073990945 -0.02159263157 -0.322752739 -0.02326703404 0.1081571665 -0.1930222431 -0.5083443584 -0.7057386225 -0.4669394931 -0.1305222155 -0.4678024974 -0.4568192319 -0.67191919 -0.5629918466 -0.4993240873 -0.119944613 -0.2091332246 -0.09626992592 0.09110915501 0.2414514573 -0.01847709463 -0.7220301346 -0.712775591 -0.8361194439 -0.5904733232 -0.4977011482 -0.1828531369 0.1212381422 0.2464583834 -0.3635879779 -0.311216215 0.06556614348 0.07201957592 -0.08761067757 -0.2763592408 -0.3192902805 -0.6290987327 -0.3331994502 -0.5081215065 -0.3213277341 -0.6750462798 -0.550502344 -0.5336972466 -0.3245371951 -0.2773484623 -0.2012566377 0.09305227344 0.3491373371 0.2372030495 -0.0815830263 0.1700037192 0.02772160277 -0.2532607726 -0.2248366386 0.01420097457 0.1999084049 0.1302775919 -0.09651342019 -0.03591091249 0.1479671031 0.1828898603 -0.06003214493 -0.5882198684 -0.6136954218 -0.4669356035 -0.4744274785 -0.4515646286 -0.333902751 -0.4091872375 -0.5565191511 -0.5723083779 -0.2346943596 -0.1297515719 0.1272656676 0.06291992941 0.06716701411 -0.2410390344 0.1760553898 0.3285480844 -0.1298870678 -0.7576853261 -0.3860032879 0.1135839795 0.1699945713 0.008164467483 -0.3038650753 0.1251712487 -0.05471173351 -0.5826178453 -0.3918829871 -0.2472541341 -0.5255191463 -0.289769517 -0.5382359649 -0.3035003271 -0.7156005802 -0.3532000627 -0.380795 -0.5693891451 -0.2138858132 0.4236423759 0.4542553011 0.2551828245 0.3944987216 0.1451206829 0.1461804332 0.1577529814 -0.3063175528 -0.6104014517 -0.07356780999 0.2630899256 0.0957229231 -0.3365205332 -0.2901260719 -0.004465837303 -0.2936825201 -0.2228831945 -0.5218441061 -0.2202311931 -0.455994624 -0.3306245065 -0.3803139813 -0.4753056529 -0.2789692985 -0.1663192284 -0.5947735587 -0.4638312541 -0.3994827532 -0.1454679872 0.1572431698 0.4014732274 0.6486003499 0.6163811273 0.493279934 0.3912257572 0.166623681 -0.08737806208 -0.1789833687 -0.2440921874 -0.3421606571 -0.5367886437 -0.3546989911 -0.3856746582 -0.6154689547 -0.4493651595 -0.5354668302 -0.3898153308 -0.3568218348 
-0.462186575 -0.3194588396 -0.07006484869 -0.3874017058 -0.3149762034 -0.1742589674 -0.3032220843 -0.3797484295 -0.3310060595 -0.1547501162 -0.3490447059 -0.4399016723 0.1492377057 0.2608807828 0.1709477632 0.196305558 0.05954022629 -0.06381806407 0.04198078053 -0.1069633136 -0.2889533 -0.02089755112 -0.2603165184 0.003868388085 -0.3018489788 -0.3290087913 -0.398623348 -0.3826629365 -0.2498868391 -0.3023089434 -0.03826251401 -0.2403954939 -0.04780137029 -0.03888276598 -0.1204498882 -0.1773969993 -0.1382489105 0.1685164494 -0.3109350532 0.01769184156 -0.1235337045 -0.1387641563 -0.163644995 -0.05579865616 -0.1567906944 -0.4435564479 -0.1334003088 -0.2440164789 0.04222165628 -0.205885317 -0.0514630461 0.05457224845 -0.3099575249 0.03853883382 -0.2015927478 0.0215764056 -0.3076850839 -0.1900622144 -0.4141208224 0.08587216938 -0.3982159411 -0.01692809646 -0.2311102937 -0.4113671471 -0.06840052486 0.1187816562 -0.04898454281 -0.12855565 -0.1866329606 -0.3373729805 0.05382851994 0.1244390327 -0.2076399393 -0.1461409416 0.2996719399 -0.04548194472 -0.2707910789 0.06235088386 0.1335472674 -0.2884912074 0.1280111897 0.06406711352 -0.281073304 -0.1287818828 -0.4532860935 -0.4617282022 -0.05462389103 -0.3015896204 0.09242992954 0.01637348864 0.04899990417 -0.2577440572 -0.3579110194 0.157461132 -0.03781041329 -0.3147919464 -0.2612848511 -0.2385155119 0.04575100785 -0.2013861186 -0.1494456337 0.2720880656 0.4977575001 0.2899397687 0.2419925365 0.4062764944 0.02564377374 -0.136875778 0.06208663306 0.0930710524 -0.4015728404 0.1719917983 -0.4151641675 -0.2459857299 0.09149629619 -0.2324954192 -0.2009192136 0.01314649336 0.2337291335 0.171915574 0.5065244354 0.4329537324 0.3107775898 -0.2157338954 -0.5275634202 -0.498827801 -0.6617883673 -0.4559945403 -0.08696021834 0.8350623947 0.8356283332 0.9632563357 0.8695396221 0.4021056784 -0.2023927706 -0.2814275274 0.1469811367 0.2254230781 -0.07720743897 -0.3434358135 -0.341976222 -0.3787066187 -0.1566156746 0.03882550584 -0.2156726803 -0.1618578361 0.05871647955 0.2968589307 0.3921180436 0.1163559754 -0.08138172854 -0.1823055042 -0.2389230877 -0.3741930223 -0.230391824 -0.07331888678 0.01055804845 0.2752531076 0.1316628031 0.1208683644 0.217048341 0.06175160667 -0.03814598646 0.3726404348 0.5366510442 0.4292571816 -0.1756704186 -0.1419746622 0.01256127655 -0.2767314435 0.2334761114 0.05487757142 -0.1039758404 -0.197903075 0.03484361821 0.08608514424 0.1685866124 0.06018907573 -0.07636202816 -0.2493736984 -0.1752714351 -0.08751996808 -0.1645448756 -0.2588316666 -0.8850394008 -0.9977095413 -1.02219979 -1.51040783 -1.769417674 -1.049574032 0.6643153147 1.390586986 1.341427666 0.9582018136 0.3711050989 -0.3900848167 0.1284963583 0.0597211414 0.0870335812 0.194602382 -0.019334874 -0.1678125312 -0.1932484647 0.07737227541 -0.1075047621 0.06022986589 -0.1409042936 -0.2770621977 0.01981482085 -0.09734204604 -0.2945805231 -0.9529926028 -1.693283908 -2.046411671 -2.270706421 -2.714208001 -2.971332522 -1.455601764 1.02671927 2.029427208 1.675904644 1.033347034 0.5006438276 -0.3848008063 -0.136596751 -0.05450722141 0.2556493626 0.147743301 0.04619486846 0.06565607314 0.0304349863 -0.03199896912 0.02526302604 0.1043576782 0.002129074907 -0.06945088686 0.08166354136 -0.06172008492 -0.3335548838 -1.086176067 -2.583727908 -2.70909018 -2.97347328 -3.377625342 -2.644481047 -0.9926200456 1.609841528 1.867006516 1.431312419 0.5017888025 0.4825243242 -0.1263732516 -0.1762186917 0.01126984979 0.1892460568 0.06081025473 -0.02460450614 -0.0685019435 0.02804470862 0.05813246066 0.03642604263 0.1835425013 0.05293766024 0.2465035409 0.03186249277 0.01612749676 -0.1839528043 -1.365795867 -3.30916505 -3.527996064 -3.396060099 -2.170454385 -1.620902439 0.4285331382 1.877051237 1.810712737 0.6642665922 0.2226957365 0.09569181998 -0.3601662186 -0.08910269604 -0.1851297387 0.1357641201 -0.1981210652 -0.489848353 -0.4219159291 -0.1437153984 0.09468645786 0.1984157841 0.06213578727 0.09020513861 0.2131021783 0.2488005867 0.2677706374 0.08385675438 -0.6646410352 -0.9636302497 -0.6306580241 -0.4160701709 -0.05229874692 0.5163028735 1.383675709 1.736585376 1.337330772 0.397255802 0.1833439899 0.5314779952 -0.08601741511 -0.3687688019 0.05861620617 -0.4124585547 -0.4208528846 -0.339755687 -0.5889133163 -0.1069251131 -0.02014805128 0.09662128234 0.0750572174 0.07827344727 0.1613393224 0.3480968051 0.2955370771 0.4117861041 0.8010503621 1.3449044 1.260036362 1.174004605 0.8690631247 0.6689730127 0.6193229524 0.5503605826 0.3462325129 0.1601727428 0.4729281603 -0.128500916 -0.04467593731 -0.05728087536 0.2770515474 -0.02282246186 -0.2526238848 -0.4113148748 -0.2415220452 -0.2478620874 0.01110911622 0.02316719074 -0.0308794968 -0.03383610952 0.1263960762 0.2355682529 0.3521446275 0.8736301952 1.210376146 1.433356509 1.285063652 1.052448638 0.5474524745 0.04421644598 -0.2468544848 -0.2681373227 -0.2580045806 -0.19358615 0.3702376819 0.1290579913 -0.09457275735 -0.01688803327 -0.03742704968 0.1111384446 -0.3269372601 -0.2479779774 -0.07801509521 0.01646963422 0.08255119977 -0.05779579278 -0.245157013 0.004751766473 0.2659753227 0.2333569487 0.1553885235 0.1083401374 0.1554069017 0.2586143034 -0.1268941837 -0.1032962284 -0.03775824425 -0.04741005535 -0.1819315031 -0.2042027491 -0.5982293783 -0.5729738659 0.1115747197 0.1488803263 0.09858350814 -0.1248184225 0.2178235791 0.1685493167 0.1778353311 -0.1112019264 -0.1326791727 0.2899812056 0.03350901465 -0.2202033189 -0.3944187688 -0.1126557108 0.3644075818 0.2840650329 -0.1484416632 -0.6531886698 -0.9004714682 -0.9692001856 -1.031967813 -0.5381724197 -0.2468362591 -0.05082389997 -0.05862397048 0.0229423445 -0.5092016565 -0.4863046758 0.3189760097 0.339030937 0.09627715174 0.104541556 -0.1296139774 -0.1864792346 0.01579604926 -0.178922932 0.09366465475 0.2656785502 0.2338505736 -0.05385699078 -0.2586002442 -0.04073553358 0.580256555 0.2591347371 -0.3649770996 -1.031528582 -1.082619665 -0.6205976871 -0.2800113046 -0.1970145142 0.01239400047 0.1782208035 0.03656411866 -0.1372545267 -0.5185647032 -0.318169738 0.3501918561 -0.1718279733 -0.3834863228 0.02447444847 -0.318595446 -0.3875219987 0.2569326719 -0.2863119305 0.0352061185 0.194313892 0.3581244397 0.0343217793 -0.1418933712 0.04646616919 0.3806687849 0.1759525689 -0.2611049416 -0.5378000526 -0.3597314449 0.2159669033 0.4992841709 0.3301530975 0.10395676 0.04613603113 0.09755747819 -0.3363838729 -0.3928487151 -0.2799825609 0.2193364905 0.2390882539 -0.1729790038 -0.3275799489 -0.1077665646 0.03076349074 -0.1991695589 -0.2855772089 0.01231386841 -0.016547248 0.1198894711 0.01744471165 -0.07840580571 -0.269320338 -0.05929718375 0.03668624204 -0.1561084638 -0.1777779685 -0.3020035771 0.2895085548 0.4003555648 0.01667142365 -0.1543549108 -0.09402364192 0.04694530268 -0.5360926032 -0.485881027 0.1197897116 0.1038180392 0.1814507517 0.08987993785 0.07132406683 -0.4270394926 0.00336873827 -0.1819587433 0.1100734464 -0.06632185231 -0.3085528945 -0.05603241515 -0.07252362055 -0.399684147 -0.6069223542 -0.288293874 -0.09426421582 0.04615109503 -0.2202659602 -0.4821898189 -0.2941031679 0.05724756411 -0.08806822526 -0.07990948644 -0.01814594471 0.1581600727 -0.1976103453 -0.4531164652 -0.2053236555 -0.002035308967 -0.0374646784 0.1008492122 -0.07612455794 0.1567787217 -0.3977475827 0.1301521062 0.1988517121 -0.05091967511 -0.3123116114 -0.3592159299 -0.04253206204 -0.3270200347 -0.4731549758 -0.3378936027 -0.05376865199 -0.1505178885 -0.5239716086 -0.8695347689 -0.4083991323 -0.09851725415 -0.2234903932 0.07214588619 0.3647882627 0.1723220678 -0.3298941492 -0.284617696 -0.2173340287 -0.2419143072 -0.483666041 -0.4421742961 -0.325769193 -0.1388576673 0.03485148883 0.03368254084 0.4074571597 -0.02306459967 -0.1272901047 -0.2988298116 -0.325064079 -0.197967999 -0.1151504957 0.08627572981 -0.06867930646 -0.4068861125 -0.5970885151 -0.506043344 -0.427796999 -0.1784951509 0.03037732037 0.03958700876 0.03520928118 0.04539001931 -0.05056463682 -0.1610880009 -0.1551758777 -0.0211598764 -0.06944348712 0.03781149916 0.04568505523 -0.3615900396 -0.4710171019 0.02397000894 0.700274434 0.1844695142 -0.1787818213 -0.09081325174 -0.1176300251 0.0255684871 0.3305993526 0.3344156467 0.1361994506 0.0500197132 0.02092807641 -0.1810128342 -0.07042419075 -0.009312357246 -0.1832301008 -0.1662787099 0.1592930133 0.272090969 0.3375791416 0.203272767 0.1615513252 -0.2307786509 0.06650828239 0.2300416617 -0.3078196063 0.001023222985 -0.3953548809 -0.1954931634 0.06811299734 0.2462976727 -0.2311410068 -0.3146171067 0.2237648612 0.3541504831 0.4456503242 0.2564048034 0.03614124695 -0.01112601547 0.2063216898 -0.08905020637 -0.280664027 -0.1896799636 -0.3055405054 -0.4149674294 0.1343340149 0.5363343086 0.6800673104 0.5373247524 -0.0465662687 -0.004646107404 -0.1805383419 -0.2843362936 0.05304296394 -0.2611875304 -0.4169148322 -0.1596158485 -0.2334194768 -0.2826386379 -0.4400114339 -0.4415938014 -0.1580690175 0.1203534265 0.2090786576 -0.03563952743 -0.1520450704 -0.006346215444 0.05504862891 -0.2591010286 -0.6165854422 -0.5286118029 -0.4671295572 -0.4592896544 -0.01085860886 0.4241040294 0.6339487164 0.3683262782 0.04909277636 -0.0675132771 -0.1968318105 0.1262055046 -0.3490747893 0.05163665249 0.04231013036 -0.1189866885 -0.1483459597 -0.5713924482 -0.5343872214 -1.078863419 -0.6513764195 -0.1467061095 -0.108183345 -0.286453042 -0.2690383748 -0.1130850292 0.05465092535 0.0007709750893 -0.2834279069 -0.4660197801 -0.4497745833 -1.099651889 -0.3687013399 0.271333618 0.4181769679 0.1902763899 0.0002113851117 -0.1543552539 -0.04366648033 -0.250041929 0.07765956921 0.1699615803 0.1402226671 -0.05290598221 0.1913544158 -0.1652300964 -0.4558744619 -0.8092221998 -0.6401427988 -0.1041868846 0.2137429514 -0.2191611056 -0.09849482112 -0.04993418774 0.1513543982 0.03284899592 -0.1228176953 -0.06742300006 -0.2942747602 -0.5170392027 -0.1484098149 0.471491772 0.4790979619 0.1876403425 -0.3106277796 0.1439638281 -0.05393307728 -0.2046337388 -0.2855829251 -0.03237159412 -0.2179159111 0.1443427522 -0.2092642028 -0.4082397569 -0.281743404 -0.1856722961 -0.4212001468 -0.06902497539 0.2553708682 -0.1754256839 -0.02153929565 0.3361966624 0.7703499791 0.2419304402 -0.2054016787 0.105528878 -0.04997759879 -0.4529950123 0.001518767816 0.1475828078 0.1012203868 -0.1392148944 -0.02632929783 -0.326899389 -0.006259334879 -0.1212218456 0.02342430131 -0.164070074 0.02609079691 -0.137512899 -0.2697889549 -0.04783749613 -0.1047231968 0.2551864388 0.05777612168 -0.1534745528 0.2053394546 0.2100404523 0.1929669659 0.3887253151 0.4093676997 0.1394529691 -0.2455070784 -0.1387534459 -0.04027991668 -0.1055499925 0.1937096365 -0.0325676305 -0.2092116772 -0.2423763948 -0.1275472761 -0.1526698504 -0.2436948945 0.08608377185 
-0.4093906074 -0.4142100497 -0.1652069058 -0.6316060084 -0.3572394926 -0.555089017 -0.2686384014 -0.5561414035 -0.5998703651 -0.3555469581 -0.415096595 -0.1233075421 -0.5755761321 -0.5549971002 -0.3013180174 -0.6460136704 -0.4855180767 -0.4215047161 -0.3639533181 -0.2816512641 -0.1910839311 -0.5218455251 -0.3012789202 -0.6701865751 -0.4996716212 -0.1722081798 -0.7367486912 -0.4875054468 -0.3975194563 -0.3904096219 -0.5276670741 -0.6634383099 -0.5843098298 -0.2410942941 -0.5621628252 -0.5720148711 -0.6673530609 -0.4530665373 -0.4315076703 -0.5195709363 -0.4307869973 -0.5579262741 -0.5324153426 -0.5006153193 -0.6146169463 -0.6324017677 -0.5233336615 -0.6755749003 -0.4291040547 -0.5286806494 -0.2530547373 -0.3532218571 -0.1952541166 -0.3914048906 -0.4641319749 -0.4319736656 -0.4744119733 -0.4231970331 -0.5139166787 -0.2119523967 -0.3215793473 -0.4211643915 -0.34670845 -0.6830150526 -0.4691409152 -0.4437933406 -0.8301966365 -0.6925056037 -0.5907367897 -0.9595574484 -1.310637552 -1.38650103 -1.145184863 -0.8570937493 -0.767212733 -0.6478086094 -0.5613092593 -0.8441214409 -0.7394305303 -0.8579937276 -0.3513295965 -0.5384078921 -0.3369419039 -0.3508184489 -0.6237226001 -0.5855889251 -0.6382743024 -0.3973871206 -0.5883080183 -0.3930113287 -0.7489013231 -0.5249152854 -0.71539842 -0.5560038403 -0.3974270313 -0.2804735533 -0.5291829792 -0.7867239338 -1.282321377 -1.407932318 -1.575921245 -1.745585916 -1.482964523 -1.08484955 -0.8673515779 -0.7035370154 -0.8473015929 -0.8682338041 -0.3889545206 -0.6173067515 -0.5678676782 -0.5312532351 -0.6384601943 -0.5356976849 -0.581805321 -0.5341008713 -0.474148421 -0.8049537263 -0.8519255765 -0.4461947559 -0.09913749751 0.5016641839 0.6391366253 0.4536527012 0.2728238626 -0.2054033796 -0.3806409948 -0.4306327028 -0.4676224013 -0.3530628421 -0.3112314671 0.1085286685 0.0172938549 0.08706695227 -0.003449235691 -0.4085243384 -0.8527773869 -0.7833395107 -0.5600622174 -0.6070471872 -0.2428999575 -0.7165416414 -0.3730939345 -0.4844336981 -0.6490018235 -0.7665428642 -0.3372099772 -0.222530174 -0.004464205127 0.1840596695 0.1400760274 -0.02843038335 -0.1879492024 -0.1688263375 -0.2347973026 -0.009580273263 0.1209252928 0.148481503 0.2880138618 0.3782220899 0.2584959076 0.1999274251 -0.002408522166 -0.2835396858 -0.8738135051 -0.964564478 -0.5045664576 -0.4221923011 -0.1667073197 -0.1036052269 -0.5335922599 -0.7863157641 -0.5831292146 -0.4476476807 -0.2406055088 0.003287826933 0.1023392302 0.2180258557 0.01697775134 0.05637256163 0.01063798966 0.15991464 0.3465504712 0.4361476196 0.5105951334 0.4545570701 0.41210434 0.734801876 0.8457812765 0.7641006382 0.4264967733 0.08650029962 -0.5285768334 -0.6212328221 -0.5737382072 -0.6034824688 -0.4273744696 -0.33738504 -0.492982566 -0.9703092559 -0.319788472 -0.2922400228 -0.08420511331 0.1226387283 0.2321554517 0.01711555667 -0.05314530488 -0.1678385132 -0.02413556412 0.1239786405 0.209359351 0.2917474763 0.3180337925 0.09951061639 -0.04819399128 0.3411671886 1.048140113 1.133726906 0.7767373214 0.4930465163 0.0921129752 -0.4680609841 -0.6502210217 -0.3791406557 -0.3830640697 -0.663490298 -0.6855568822 -0.7139029352 -0.4166975684 -0.1560463649 0.07928588955 0.2091396998 0.3110770158 0.1205939725 0.05662193286 0.09462272214 -0.04334475465 -0.2946914686 -0.419499481 -0.3771230759 -0.4215750229 -0.5667975196 -0.6013831378 0.03161649184 0.717372085 1.488502065 1.25192899 0.9335897359 0.448048047 0.04141792129 -0.4446918242 -0.5033708627 -0.387596918 -0.3917383294 -0.632180186 -0.644236971 -0.1389565622 0.299642779 0.371735134 0.3448648691 0.2326814563 0.1637035229 0.1024581529 -0.1363635512 -0.4502010812 -0.9134784567 -0.8089849144 -0.7692746149 -0.6327168413 -0.6011139294 -0.4445365322 0.08009576354 0.809986986 1.456704801 1.600450331 1.152115634 0.8310425763 0.1505563471 -0.4002353447 -0.1792142106 -0.2660593099 -0.6693048088 -0.6381620568 -0.5031471297 0.06377044067 0.332032695 0.4279582545 0.08296283357 0.05212726843 0.1015034997 0.2131989219 -0.08678434581 -0.6604414027 -0.8639535281 -0.8187806555 -0.5689943972 -0.07889417358 0.1167454895 0.4773659281 0.4527034206 0.8191671803 1.130532949 1.421668957 1.139558107 0.5692508572 -0.2737683671 -0.3790319597 -0.3612660463 -0.396824449 -0.4663544169 -0.6940429024 -0.1848484699 0.1005707952 0.3489202762 0.2192850978 -0.07524996621 -0.1377943136 -0.1169883938 0.02086405995 -0.2434071456 -0.4240750779 -0.4437636957 -0.2411517812 0.0990330946 0.6824871899 0.9025939479 0.6082145421 0.2812494178 0.1635113796 0.2435403864 1.092523668 1.129631248 0.5607461661 -0.6570242718 -0.3777062956 -0.5567495344 -0.4285773717 -0.3286713556 -0.873212859 -0.4855506472 0.07652471046 0.33565374 0.06071858253 -0.2438499537 -0.450120551 -0.4161449154 -0.26561026 -0.4446371462 0.0233893635 0.3473789063 0.7195863626 1.175349181 1.119228497 0.5326462907 -0.05517798692 -0.4428341205 -0.4589134819 0.0320487105 0.8943291264 0.9282436992 0.3961158528 -0.4423148569 -0.5435601909 -0.6032981092 -0.319341158 -0.2168320328 -0.498075294 -0.3420924415 0.4369393393 0.4427613676 -0.127387333 -0.4069320462 -0.5259864207 -0.5979038855 -0.4127330643 0.005579856694 0.6474643726 0.9558921155 1.306964348 1.291095677 0.5491376671 -0.04445891458 -0.7169946657 -0.8350254797 -0.3198748084 -0.003583652012 0.6564082359 0.6316730109 -0.2273609858 -0.5109217699 -0.5631528345 -0.5480753314 -0.4200106314 -0.4975613721 -0.7462305675 -0.4065405188 0.8221842461 0.4048867147 -0.1074020132 -0.4939940909 -0.6967725126 -0.81266113 -0.378939722 0.1508141079 0.7594743643 0.9375112742 0.9446467803 0.6396954385 0.1509732275 -0.1234817589 -0.3487236395 -0.5510678748 -0.2780592734 0.05067933357 0.5646067875 0.2002495856 -0.5095804021 -0.7163249992 -0.532677445 -0.5082483774 -0.2123388547 -0.3424206504 -0.2071607753 0.05948396407 0.9689314236 0.435857511 -0.1661217406 -0.4859026987 -0.4557765445 -0.3144205041 0.2744585255 0.601799811 0.6430807504 0.1462598798 -0.2252452286 -0.3575507085 -0.09085340408 0.2006214639 0.08860822843 -0.1063379817 -0.09474518837 0.07108326158 0.3055197163 -0.06137380902 -0.7139241927 -0.8038350371 -0.7880026218 -0.5413522213 -0.2801306164 -0.4615411666 -0.1234386313 0.08627171897 0.9830821869 0.2225908563 -0.1436485685 -0.07017183926 0.07555571575 0.4421155756 0.9657440683 0.8167956063 0.148551281 -0.8579397011 -0.7957869345 -0.3362882435 -0.2678510998 0.1660100461 0.1556518532 0.1706664966 0.225753497 0.1594414958 -0.0515296463 -0.3045407014 -0.9840650703 -0.570950338 -0.5553931672 -0.4448996088 -0.3514525849 -0.6950848759 -0.1119148829 0.3130807007 0.7111039575 0.2037673142 0.1891532482 0.2258706713 0.7053746527 1.062528 1.069898933 0.0639925422 -0.6224849211 -0.9434567413 -0.5967404509 -0.2394926874 -0.3498793875 -0.08518631562 0.110133057 0.2871144358 0.4111341318 0.1082617465 -0.2646571584 -0.6102168031 -0.9141724708 -0.9065625787 -0.5557145631 -0.6090325089 -0.3336460235 -0.4982587097 0.1385949699 0.2437402579 0.4478031368 0.3606239294 0.3956604936 0.4162206906 0.9193994484 1.039298031 0.3883068935 -0.5685079685 -1.018428976 -0.9333360904 -0.6628284004 -0.4474065522 -0.4172703791 -0.1408881279 0.237111065 0.3238533287 0.4281840539 0.1228608344 -0.3359309001 -0.6477153494 -0.8854783204 -0.6238172273 -0.3621864326 -0.3227942064 -0.3322033813 -0.7112638858 -0.1483704533 0.4407086936 0.3000441712 0.4770865322 0.5748536165 0.6913868255 0.6238198232 0.5012428432 -0.2013488829 -0.6395091478 -0.6285320462 -0.7128238754 -0.7070098436 -0.3914748253 -0.1824093773 -0.1121398825 0.1781478157 0.2890026575 0.3653510866 0.1586826728 -0.3402880696 -0.8602209055 -0.7958839784 -0.8098087497 -0.5751244249 -0.4681277191 -0.5906028521 -0.2695917068 -0.2254093748 0.2076440831 0.1760879952 0.4839264317 0.3912549189 0.5430550893 0.5320488439 0.04646976664 -0.3722120252 -0.3897691496 -0.1181388519 -0.3225120106 -0.1133560759 -0.2010742807 -0.06611330118 -0.08461470003 0.07046260528 0.1600765969 0.2355988584 -0.07978607075 -0.682273949 -0.78423912 -0.7727194404 -0.888476019 -0.3451859928 -0.6510440244 -0.3784745164 -0.4072405044 -0.1313532044 -0.2295180255 -0.09961975096 0.2762209012 0.2625282924 0.376548023 0.5609399635 0.3259811236 0.1494709316 0.1035361623 0.2056502933 0.1551163926 0.03985307658 0.006614301896 -0.008374864891 -0.08826611453 -0.09395084449 0.2119831587 0.01262838371 -0.5568564011 -0.7464285591 -0.5155479529 -0.495649593 -0.734524279 -0.7286112571 -0.3153572037 -0.2220971299 -0.6698548888 -0.4409448882 -0.4201509679 -0.5275982277 -0.1797573734 0.0842406209 0.3735347464 0.5672884688 0.6054396392 0.6028324152 0.3624607807 0.3268192818 0.1157626927 0.001079420166 -0.005258415285 -0.2322451217 0.01696675663 0.214546705 -0.04681567635 -0.2852820294 -0.6549460898 -0.6266418767 -0.5679094474 -0.7288083613 -0.7425540056 -0.2749233642 -0.7509001607 -0.5933591342 -0.5860413413 -0.3100120414 -0.1896113423 -0.5823610999 -0.5822534274 -0.1249504175 0.1365908536 0.3990000051 0.6559549821 0.5747460063 0.5188687195 0.3615946834 0.2414686635 -0.07811579209 -0.2435617261 0.03589408023 0.3087828683 0.1700017058 -0.2026721282 -0.5554308043 -0.5934357928 -0.4897231942 -0.7170385598 -0.7502250791 -0.5644148155 -0.6058563353 -0.34420112 -0.239196287 -0.3927751055 -0.6440263367 -0.5383550487 -0.3907753033 -0.6089448107 -0.4246660586 -0.0665370536 -0.08066674952 0.1213202419 0.2408588465 0.2391295494 -0.0396403311 0.09117986011 0.1883224387 0.09872574406 0.1143329424 -0.04677776392 -0.3002724537 -0.7289223515 -0.8627540018 -0.7654269629 -0.5332020693 -0.5956143789 -0.7416273688 -0.5457190317 -0.6399496836 -0.4326636286 -0.7254075881 -0.5915053084 -0.1975714707 -0.6091594549 -0.2624958766 -0.8824263599 -0.8997874129 -0.5865876838 -0.3905862528 -0.3110852698 -0.2181393202 -0.520657959 -0.6388921381 -0.5268669767 -0.2724779531 -0.3735398829 -0.7885472212 -0.6287735068 -0.6899850873 -1.006587579 -0.9899556865 -0.9811743663 -0.5818036603 -0.6962194015 -0.2399921091 -0.5991796327 -0.2479397857 -0.6174621595 -0.4753499875 -0.4859623344 -0.1058534219 -0.5608320532 -0.5268433127 -0.4711561505 -0.7418162616 -0.6774440546 -0.5626001748 -0.6164137169 -0.8230659085 -0.8498827098 -0.884718508 -0.6201196299 -0.6336058797 -0.7270008766 -0.8820791624 -0.8105731387 -0.7830683972 -0.6461330305 -0.7351375621 -0.5687243774 -0.7034640741 -0.5099119691 -0.4297451524 -0.5836178955 -0.2069154956 -0.5836231547 -0.4033177605 -0.4839609039 -0.3369141451 -0.5703046156 -0.2813893139 -0.3465102649 -0.6145160383 -0.3224410831 -0.4729879656 -0.6364767413 -0.6750624151 -0.4284180478 -0.5303538624 -0.6929457494 -0.4848492512 -0.34250351 -0.4285212975 -0.7802667883 -0.6633620761 -0.4409674001 -0.6204579164 -0.6451525182 -0.3767468923 -0.4551449492 -0.2038433507 -0.4800420974 -0.3909844857 -0.663591565 
-0.03277026155 -0.1279619826 -0.3666513801 -0.3046820235 -0.5172153804 -0.03910839801 -0.3928906951 -0.1580852855 -0.3065393264 -0.46284515 -0.2894331001 -0.07516972467 -0.345533089 -0.03684285054 -0.1339157285 0.0032141997 -0.4939561943 -0.1430993413 -0.319028437 -0.01648002375 -0.3861766448 -0.1498526283 -0.4430275278 -0.4627655259 -0.4652906045 -0.4936124162 -0.2395193508 -0.0267050152 -0.4105576521 -0.06091726971 -0.4760146196 -0.4163824521 -0.5755599926 -0.005385179086 -0.3970346753 -0.2540019364 -0.3199652434 -0.4379244518 -0.06106020763 -0.223814144 -0.5812409221 -0.2064757731 -0.1562312732 -0.2125063275 -0.5036811478 -0.3956721462 -0.1861216336 -0.4307609829 -0.08369329429 -0.2081802991 -0.08395103216 -0.3217291196 -0.4835194559 -0.5264075538 -0.2417738294 0.03296792039 -0.3631983364 -0.4905852535 -0.4799023844 -0.4610627074 -0.2047034048 -0.1324389374 -0.1786684048 -0.2638824175 -0.4481934145 -0.5513507724 -0.1972888895 0.1062423998 0.3206871038 0.3470145257 -0.01541598506 -0.1527470044 0.2463406121 0.1974622218 0.05024335158 0.08911531953 -0.03816646459 -0.3679260147 -0.3881904198 -0.5283693318 -0.1676640068 -0.5199535807 -0.3666386165 -0.05291432664 -0.5539952514 -0.05234250293 -0.271361897 -0.1120647334 -0.2941023024 -0.296526522 -0.1740523966 -0.4220839033 0.04545964896 -0.06504354519 -0.13105585 -0.001293040726 0.2629660891 0.3339704054 0.1828836603 -0.1100000951 0.009812070749 0.04394744522 -0.2029082335 -0.2193606971 -0.08814124326 -0.0810377848 -0.4020687049 -0.2853353828 0.1515556146 -0.256720613 -0.320176039 -0.4196649548 -0.2401728141 -0.2865325547 -0.1900741899 -0.3839100374 -0.1815779864 -0.2544950016 -0.1376283318 -0.3434640561 -0.6630036812 -1.013422529 -0.6941394584 -0.4352630844 -0.2390667372 0.001369661275 -0.01175213345 -0.06532635004 -0.102534704 -0.1235010947 -0.1015378133 -0.3742450422 -0.2997269248 -0.2788813649 0.02936888486 -0.002395763429 -0.1568339221 -0.1409728162 0.1371983565 -0.3859680856 -0.5435546356 -0.2672040267 -0.1061956012 -0.151686498 -0.1325450147 -0.428901429 -0.05751703433 -0.4595549186 -0.8408463537 -0.9324603665 -0.677672305 -0.2389551109 -0.07253814135 0.07569610693 0.01487121603 -0.1289302095 -0.1427868152 0.05081877507 -0.04249869443 -0.2558799565 -0.2704976154 -0.08080132039 0.05115406754 0.2376840818 0.01977540796 -0.2077468831 -0.1082572978 -0.2085728435 -0.3143261094 0.02016968177 -0.1574756831 -0.3315933158 -0.3677964462 -0.01273747044 -0.1052149734 -0.3974453962 -0.7510293828 -0.6731050705 -0.4532163837 -0.1936069835 -0.009083155954 -0.1229454778 0.05991491938 -0.001832395478 0.1804819501 0.3034398342 0.3893474423 0.02013728631 -0.08612893849 -0.03996531263 0.210516751 0.2707773448 0.1217462923 -0.04425841896 0.03198499444 -0.3729038568 -0.008015317464 -0.3123153926 -0.4690266444 -0.4861636497 -0.2545770035 -0.009357397988 -0.4015361528 -0.6486531821 -0.6413569536 -0.538026552 -0.1935351558 0.0114616675 -0.06197951354 -0.1157085115 -0.02578578302 0.08201364779 0.1908723966 0.3838855041 0.1378009749 -0.01822357323 0.01561242738 0.1516026172 0.2678952893 0.1377689739 0.1896221056 0.1522845722 0.1525306287 -0.5914494874 -0.2935994701 -0.3666492034 -0.4558765416 -0.1420384937 0.02296205463 -0.1922313336 -0.4841351704 -0.8068762937 -0.6861301841 -0.4343945587 -0.2463620152 -0.1246816145 -0.07527591988 -0.2153223333 -0.3885461899 -0.2102259836 -0.07570485906 0.02728578844 0.02795980992 0.06169408654 0.02947712321 0.1961381012 0.3682821328 0.25098211 0.09781890936 0.2845130132 0.01246956477 0.008335806892 -0.3606925686 -0.3970458905 -0.4964322598 0.2270916121 0.1633638846 -0.2212594977 -0.4765200877 -0.672451204 -0.5066621516 -0.4788920277 -0.2737269137 0.1299266467 -0.2144301048 -0.4776906169 -0.5367913974 -0.4031962843 -0.2520527959 -0.1030116955 -0.2949702722 -0.01304790118 0.3984881573 0.5277158882 0.3076290023 0.1963255958 -0.1242894966 0.2971566993 0.3067845618 -0.2733450307 -0.4341519224 -0.4728988081 -0.343145254 0.1160119677 0.1638790367 -0.141778727 -0.4218766441 -0.3216265287 -0.5391339043 -0.1784309841 0.1917223364 0.09457575982 -0.1530215341 -0.3833938057 -0.1846864735 -0.06404480388 -0.1811188506 -0.2184180348 -0.1262490253 -0.05430371701 0.6890294988 0.5651455414 0.05012751186 -0.406069314 -0.7341062119 -0.4103794197 -0.1579381887 -0.1440302623 -0.22171412 -0.2577355635 -0.09609288923 0.01581445625 0.08878918098 -0.1323569872 -0.08570589228 -0.1529528964 -0.4414031322 0.009873260311 0.06792249229 0.03917000683 0.03225099732 0.002746387831 0.3150317477 0.3836495085 -0.06364968698 -0.4898212977 -0.1269831265 0.005643372343 0.5257416636 0.4160784264 -0.3276502599 -1.25002883 -1.235490819 -0.8294380986 -0.3638951179 -0.04839714871 -0.04152257124 -0.5157346604 -0.4134692888 0.08952611984 0.0681576082 -0.1338643928 -0.1188285673 -0.2261071978 -0.2519841542 -0.08585933028 0.01059646374 -0.0962777518 0.05801849676 0.191588133 0.2550292615 -0.0277336521 -0.2112993213 -0.2714484041 -0.006907142885 0.5897041348 0.4665656317 0.03992348447 -0.8437209357 -1.234223627 -0.8911964233 -0.7352127583 -0.2522455289 -0.5501892835 -0.4858501671 -0.5454049833 -0.343100862 0.2000465985 0.02459002427 -0.2212069548 -0.06382914406 -0.2116292952 -0.1668485323 0.02575335867 -0.2157507686 -0.2627990323 -0.2222790696 -0.2493829351 -0.4210810096 -0.333886701 -0.5054822284 -0.2304722234 0.3180777774 0.8169316974 0.3588514234 -0.4524562309 -1.22236419 -1.306719646 -0.8666248491 -0.2816599887 -0.5768510258 -0.1991284402 -0.5248921743 -0.3944622834 -0.4388798406 -0.2065084028 -0.2228679226 -0.3633396023 -0.4103309142 -0.248519249 0.05590789272 -0.003913985457 -0.2317773071 -0.2444957604 -0.3188210155 -0.4331826433 -0.4805030969 -0.5998795137 -0.7402329508 0.02725831734 0.9900787939 0.8127470198 -0.1966348765 -1.209738976 -1.931806462 -1.262462997 -0.6972036048 -0.3403650918 -0.2783764179 -0.3312079591 -0.5748008387 -0.3019780948 -0.2325074666 -0.1543335671 -0.4430277369 -0.7192698725 -0.361831223 -0.1665099799 -0.02559449512 0.05734155688 0.0446829757 -0.2213454574 -0.3793700576 -0.1600144628 -0.3915613833 -0.941301734 -0.7440037843 0.6017571368 1.470831206 0.2810620514 -0.9121146306 -2.043233719 -2.174359318 -1.323625153 -0.8540553159 -0.7283866366 -0.58525834 -0.3189890582 -0.5388845199 -0.1938557017 0.0885591121 -0.4266764973 -0.5805207102 -0.8339337995 -0.455507119 -0.1047161107 -0.1092056165 -0.263759718 -0.1100677958 -0.3062119199 -0.09774343082 -0.3275197948 -0.7900128443 -1.208744948 -0.08648797345 1.424349111 1.199417324 -0.5794284064 -2.01464411 -2.619571854 -2.056237473 -1.295709864 -0.7443023303 -0.7043177255 -0.3607478148 -0.2357171332 -0.4240275526 -0.497081421 -0.1871176886 -0.2238462579 -0.6194107862 -0.4695276451 -0.3884962547 -0.528171516 -0.4103356962 -0.4427421105 -0.3495620701 -0.1209214882 -0.1445358164 -0.7180085991 -1.510245902 -0.8317083306 1.327341176 1.732597602 0.2670819156 -1.958944559 -2.949041521 -2.294667285 -1.784990113 -1.544048372 -0.9752110179 -0.2524577841 -0.3772904098 -0.5448694716 -0.1329339032 -0.4680398007 -0.07376302218 -0.04196618884 -0.2805846568 -0.3352165232 -0.3392457525 -0.3646249209 -0.5403293503 -0.4782623707 -0.1277069471 0.1641562638 -0.450391728 -1.45219105 -1.219520213 0.7430469278 2.772445741 1.238497948 -1.405344486 -2.927681116 -2.558042691 -1.43733786 -1.587371472 -1.248698955 -0.9163534259 -0.3130470329 -0.1354947056 -0.47207624 -0.3555451849 -0.1830243099 -0.02418467422 0.335885937 0.1890059378 -0.1475314081 -0.04490814667 -0.1651064787 -0.3021103131 -0.2115157007 0.1440724529 0.106932985 -0.6625679507 -1.08903115 -0.2328395851 2.212243146 3.463520576 -0.4708156109 -2.898495273 -3.43050698 -1.628010928 -0.9921828488 -0.9952200084 -1.042309537 -0.8818877116 -0.5435103273 -0.1560953465 0.003961734724 0.0573905512 0.02989398026 0.05866844785 0.7083493318 0.3074767013 -0.07657768129 -0.2375917223 -0.02033022938 -0.01818938705 -0.08463091197 0.1816172551 -0.05240805718 -0.6676472428 -0.727829187 1.168885984 3.272148683 1.148572076 -2.095029131 -3.660218572 -2.171631183 -1.281190403 -0.6664900522 -0.7691272616 -0.6724339665 -0.5221658082 -0.2172017586 -0.3836209759 -0.4431209343 -0.4385605487 -0.1583983518 -0.1489292203 0.3778248742 0.3799177357 -0.09482008156 -0.2271320254 0.01682690777 -0.04695150315 -0.07958239093 -0.1602704931 -0.2010529897 -0.0396787136 0.4097776444 2.038474217 1.688291761 -0.8778747121 -3.064698336 -2.741730116 -1.696507224 -1.215680122 -0.8730610843 -0.6680176474 -0.4361809511 -0.4177423139 -0.3183417277 -0.3112449901 -0.2918016944 0.0004083104107 -0.1163502205 -0.1119316628 0.02694349264 0.2160330762 -0.2045187004 -0.2131876546 0.07139389763 0.2904016599 0.3512153856 0.3333217901 0.4625281868 0.5936682304 1.157110673 1.149794964 -0.293352395 -2.006003389 -2.482686544 -1.594240956 -1.2579139 -0.9415540918 -0.8436274383 -0.7073573463 -0.6011262281 -0.3092768119 -0.5032952526 -0.3390499505 -0.2668881648 -0.3324445172 -0.4065892583 -0.2757365447 0.004703081469 0.2212788192 -0.1374227273 -0.004244875626 0.2291675616 0.7275511897 0.9666960614 0.9234186501 0.9910153213 0.6259115408 0.6195891496 -0.3543216585 -1.443391114 -2.70427644 -1.652354838 -1.066103453 -0.9148902466 -0.6834651576 -0.6425507897 -0.5344163552 -0.2374968816 -0.02045490922 -0.340910984 -0.2079428629 -0.5561726186 -0.02894511217 -0.09318420091 -0.06201036812 -0.150331911 0.2624403767 -0.003758917359 -0.1075923236 0.3678881315 0.9448517354 1.320862011 1.139265534 0.5632257378 -0.1670993004 -0.4355985776 -1.548739907 -2.433815445 -2.219836514 -1.191890399 -0.6225009983 -0.3579538841 -0.5454806628 -0.2848298842 -0.6424885697 -0.5371017382 -0.3595755532 0.0375006371 -0.3152924149 -0.2042198516 -0.5669012875 -0.1290283824 -0.1637385462 -0.2448883118 -0.04117387861 -0.63681943 -0.8174963031 -0.2642871562 0.4575671 0.7166815885 0.7609998846 0.09717401869 -0.07145381614 -0.4634380092 -1.317918042 -2.190967177 -1.582351301 -1.124499948 -0.858695284 -0.6481697815 -0.4064636489 -0.396156237 -0.1608040784 -0.1176794321 -0.1066702247 -0.5344436023 -0.06621106091 -0.5821110697 -0.4070716207 -0.1642814393 -0.2138978091 -0.1664388507 -0.1218273935 -0.5537274864 -0.7470796756 -0.3988163245 -0.1982887749 0.08437594942 0.2282050336 0.1576942857 0.1533842127 -0.4518358546 -1.396883239 -1.719293789 -1.02492983 -0.7790173402 -0.4396409987 -0.5999803074 -0.4246286284 -0.4367784723 -0.3810951065 -0.4597356726 -0.3086966156 -0.4035954571 -0.4748828707 -0.280372464 -0.5018338667 -0.1288805363 -0.06700385092 -0.06141829665 -0.1828731377 -0.222792621 -0.1131995942 0.1182300223 0.3009316197 0.3853532175 0.162891996 0.2157566281 0.4045541535 0.1394858028 -0.6564864948 -0.7885212674 -0.6551354731 -0.338298131 -0.5325310074 -0.2591947895 -0.2854629394 -0.5428902141 -0.098327767 -0.0209870479 -0.07334074486 -0.5348615931 -0.5480309112 -0.476831109 
-1.797513563 -1.948742642 -1.787888983 -1.899978959 -1.56099638 -1.727024789 -1.776020829 -1.595563188 -1.854127655 -1.728374285 -1.627118561 -1.807948154 -1.689370388 -1.550231336 -1.455622614 -1.891668307 -1.485617275 -1.872871856 -1.591682056 -1.607025988 -1.649243199 -1.742278799 -1.567072773 -1.791017997 -1.577925061 -1.541001587 -1.953403024 -1.733262404 -1.766054016 -1.857838906 -1.975673306 -1.605872789 -1.528105228 -1.857607312 -1.694338097 -1.680062299 -1.650587059 -1.691035203 -1.787964032 -1.427543047 -1.633299944 -1.672528705 -1.994660266 -1.947902219 -1.896699531 -1.770038676 -1.929118381 -1.710316195 -1.779660387 -1.749968156 -1.70582133 -1.773052934 -1.9779513 -1.507900475 -1.789155307 -1.675696014 -1.514724483 -1.921489948 -1.747933065 -1.823557105 -1.871729274 -1.954573171 -1.524386765 -1.555201547 -1.482252041 -1.482336404 -1.788532339 -1.673693899 -1.866218633 -1.957048679 -1.830565686 -1.414463573 -1.7995871 -1.69696472 -1.379942335 -1.579045949 -1.669115696 -1.833124009 -1.628001887 -1.410945035 -1.477116688 -1.737351463 -1.766380193 -1.504610098 -1.678197876 -1.549958022 -1.491622201 -1.671453964 -1.712299269 -1.498353631 -1.262261881 -1.673713264 -1.542751336 -1.622695292 -1.503159922 -1.166131757 -1.461896524 -1.223647359 -0.6100149032 -0.8726100412 -0.6841207865 -0.4384078736 -0.6165407266 -0.9675588704 -1.027767492 -1.415434793 -1.443269256 -1.575712899 -1.478406285 -1.809247786 -1.810876559 -1.540778492 -1.793113465 -1.877383632 -1.693114023 -1.621066428 -1.288800281 -1.743695282 -1.356151433 -1.434335006 -1.321135167 -0.9191013407 -1.075904804 -0.7308397188 -0.2809711016 -0.3334889082 0.2680129626 -0.05459459108 0.2390454682 -0.1630586978 -0.1090624758 -0.2725228713 -0.5001142229 -0.8514764037 -0.8725684743 -1.086377389 -1.590854317 -1.662980271 -1.629442475 -1.754043772 -1.784904809 -1.446788611 -1.788017196 -1.839331834 -1.375285306 -1.548337654 -1.261222427 -0.9959090047 -1.184346922 -0.8192662938 -0.15099927 -0.2093882402 0.1568253724 0.08351091641 0.7366229106 0.8368323972 0.2825081269 0.311928863 0.0716569974 -0.1535035475 0.1017902413 -0.3785999902 -0.4960040604 -0.8193623716 -0.8351118528 -1.41123801 -1.380378018 -1.826700101 -1.936420576 -1.748315887 -1.634243998 -1.51206726 -1.046990569 -1.030629438 -0.9610196496 -0.5880060044 -0.1069359421 -0.06019365466 -0.1082502237 0.3324510218 0.8037646863 0.8258259902 1.006787427 0.7946102295 0.7732833312 0.7002674002 0.5368030761 0.4931996966 0.03248896278 0.1561136739 -0.1691046259 -0.6746452936 -1.036330275 -1.331696682 -1.581743162 -1.858331641 -1.576106503 -1.396523275 -1.597944722 -1.340111434 -0.8309613032 -0.4519377802 -0.3083250854 -0.1726626518 -0.08677413621 0.3522898886 0.7518290651 0.8088008625 1.055162829 0.658522541 0.8910927008 0.989560272 1.064290425 0.5656397853 0.5337137453 0.3359148838 0.3986204777 -0.2060904865 -0.2726564791 -0.5063355229 -0.8673491684 -1.267940116 -1.468930998 -1.481149143 -1.500603093 -1.555634701 -1.533359764 -1.230402415 -0.6230121887 -0.1796014772 -0.09792391031 -0.1323768432 0.4051665712 0.6781979715 0.4534767333 0.8104688993 0.718364158 1.071468322 0.5544563106 0.9279535936 0.2065601352 0.3185893992 0.6813993167 0.624448936 0.2616872183 0.1813058758 -0.2552236118 -0.2865868961 -0.788863528 -1.054152414 -1.321635497 -1.822779124 -1.698616994 -1.423490606 -1.663164187 -1.005489028 -0.9735268691 -0.21461383 -0.2966002141 0.3007521422 0.2502987097 0.6614384457 0.7058804543 0.8616684358 0.5174459153 0.8505890383 0.802290192 0.7039063136 0.2465326199 0.3479571124 0.3464953998 0.324078131 0.5623234574 0.3474306262 -0.04422407755 -0.5224516014 -0.8795411622 -1.034486866 -1.484692207 -1.456920398 -1.502044296 -1.406798718 -1.733646163 -1.308531049 -0.7475533867 -0.1590213905 0.1991056398 0.1694456137 0.4233330951 0.1337209963 0.4952653441 0.5723784788 0.3143286576 0.4164587615 0.7850430659 0.4801172803 0.4855692599 0.491586132 0.6082854043 0.6507768311 0.4398832773 0.1738423878 -0.3684951902 -0.4020523641 -0.6836198538 -1.105439878 -1.214384576 -1.626175082 -1.486503905 -1.843787291 -1.57097731 -1.350054689 -1.002601016 -0.5212882112 -0.06614186705 0.4550438855 0.3835304676 0.4416808868 0.3978651706 0.5151798975 0.3568785566 0.3248457379 0.66196173 0.1816537431 0.06192994723 0.45714986 0.5576791442 0.2461147136 0.4584212721 -0.08112169961 -0.1525576462 -0.3563233454 -0.8281190881 -1.018774849 -1.463535332 -1.730806136 -1.761122859 -1.648225456 -1.583320104 -1.087605136 -1.192061639 -0.3804421117 -0.3661111664 -0.1699964356 0.293715471 0.1255545448 0.3666904719 0.3996209161 0.2353627475 0.1650966365 0.3016318519 0.3416893092 0.7823498581 0.4508078089 0.860398938 0.62414566 0.2780678477 0.01956214772 -0.3685733712 -0.6945434852 -1.050416097 -1.267395202 -1.580699814 -1.668757644 -1.941625335 -1.868698565 -1.705059053 -1.656445416 -0.9869885702 -0.803473003 -0.09664653416 0.01449744414 0.3312284813 0.1244933285 0.7244251238 0.5837254732 0.3665500348 0.606677128 0.5708833634 0.2818056426 0.8057186843 0.5249618865 1.020960345 0.533081365 0.4178778235 0.09555542879 -0.419772089 -0.6185816849 -0.5931193838 -1.181197451 -1.345705424 -1.80311238 -1.64644018 -1.876594995 -1.814574581 -1.351382232 -0.9858521455 -0.8376979817 -0.495022432 0.2735273981 0.1908829969 0.4703769511 0.2549313692 0.6631726793 0.4810386259 0.5369368032 0.9544076413 0.85143563 0.8207726778 0.9729120224 0.906903292 0.7316248508 0.3174231619 0.1286387085 -0.3148375558 -0.8097881814 -0.9140502225 -1.126855529 -1.646626863 -1.952793076 -1.556168041 -1.963904669 -1.791687947 -1.357227037 -1.210837489 -0.5407819962 -0.244979227 0.07905686776 0.4831602125 0.3889585843 0.7544373985 0.5964011587 0.5492265597 0.5702934465 0.6164407114 1.058637332 1.138448171 0.8288814481 0.6956654261 0.5359382233 0.3310692478 0.1425791029 -0.4535564191 -0.6306690576 -0.5789476581 -1.19657917 -1.835479336 -1.7053225 -1.764617748 -1.805641699 -1.53700157 -1.544332927 -1.11225419 -0.383907902 -0.09238720707 0.384884756 0.4974971922 0.3192559517 0.7451475194 0.7084175207 0.5893794538 0.8079904307 0.9677741802 0.7069855055 0.7462061141 0.7889970157 0.5870930472 0.2788237961 0.5793280862 0.3740827323 -0.004213008503 -0.6500102847 -0.8359219244 -1.041596101 -1.386824467 -1.827215289 -1.706171015 -1.947813892 -1.50576504 -1.641432798 -1.158352394 -0.4290272775 -0.1490159452 0.4563028912 0.4586144049 0.4276550232 0.4902767863 0.6479451027 0.6786136056 0.6928196866 1.105875039 0.5837714778 0.8919835975 0.6621147116 0.5352638205 0.3385054615 0.7599043318 0.2732071085 -0.3345658971 -0.4109656523 -0.9305497749 -1.156421461 -1.575545062 -1.556324061 -2.005128842 -1.465945282 -1.487454547 -1.266072796 -0.888331187 -0.1880280891 0.1437562706 0.3856506899 0.2358274167 0.5708037748 0.6525993435 0.8592652297 0.8353877659 0.8231983019 0.8600297362 0.5735192399 0.4959048906 0.4304275046 0.2936107663 0.5062986401 0.5392720963 0.4403974666 0.06364862662 -0.4357274464 -1.085206843 -1.173299034 -1.880090424 -1.847900165 -1.596560381 -1.483066814 -1.636967483 -1.219675704 -0.9217761783 -0.06891990612 -0.02973963054 0.1289802047 0.1279217872 0.2805651896 0.6976236856 0.5479941465 0.5974329235 0.7022152908 0.8038738272 0.5396469644 0.6032279329 0.5194779683 0.2081581346 0.4417498262 0.6251090771 0.2175333115 -0.269423643 -0.4913311887 -1.04175946 -1.593579512 -1.57462982 -1.897146873 -1.699963483 -1.730015521 -1.682963986 -1.262481177 -0.8703747009 -0.4938327299 0.2101754073 0.2639651479 0.403720541 0.5751413134 0.3977509451 0.4311247111 0.3318334127 0.5078926301 0.6561447017 0.6616115966 0.5890247314 0.469232404 0.5937041922 0.9007890363 0.5462999736 -0.09742305409 -0.1682220987 -0.4541205687 -0.7564142568 -1.18814724 -1.73656138 -1.793626192 -1.539341509 -1.932542853 -1.665553733 -1.407544292 -0.858137194 -0.5446332273 0.01617651571 0.3340814594 0.3661326272 0.5265970603 0.3123962133 0.4439922285 0.1568198437 0.4553654509 0.6255716553 0.6247565154 0.5002371794 0.2571815839 0.68416995 0.2400147832 0.09368502944 0.0813428933 0.03519031275 -0.6896591872 -0.9617693443 -1.587383651 -1.257779182 -1.948916539 -1.687487111 -1.476825309 -1.795882581 -1.251881796 -1.230992471 -0.8729353537 0.03633341353 0.110869266 0.3557946326 0.4181009148 0.387722464 0.2828225891 0.6102695453 0.788454658 0.6321950692 0.6561848374 0.4456544305 0.2155924556 0.2081146588 0.06550462499 0.1734773708 -0.4488237698 -0.6014027843 -1.080804191 -1.52431093 -1.475817649 -1.718535387 -1.583869533 -1.689561034 -1.694810245 -1.839379041 -1.663870105 -1.353988632 -0.717316348 -0.355475472 -0.1194681322 0.332146107 0.2211564392 0.3801204402 0.4401649856 0.440184006 0.3655033214 0.467803116 0.2255966417 0.3474244066 -0.04771603739 -0.1020899164 -0.05180648229 -0.2849876852 -0.3888165459 -0.8797513081 -1.368025539 -1.520528737 -1.670889885 -1.964239289 -1.802331943 -1.729499949 -1.896974155 -1.783678717 -1.738812605 -1.500478693 -1.553901688 -1.072511642 -0.513650601 -0.3266255961 0.3201164201 0.4680355522 0.5589731758 0.4046136645 0.01648153034 -0.09028656755 -0.2422224388 -0.3717559365 -0.2739439699 -0.7166264268 -0.6124745574 -1.117422635 -1.410927606 -1.462450972 -1.553236842 -1.392973234 -1.763831009 -1.979561133 -1.662163424 -1.526859137 -1.544074501 -1.979498771 -1.554085306 -1.625942971 -1.646779806 -1.486015552 -1.253150209 -0.9226898495 -1.094704476 -0.9061369421 -0.3354715335 -0.4092804648 -0.8184779538 -0.6853222635 -0.6647446238 -1.120650098 -1.025464933 -1.148658587 -1.08307211 -1.023402536 -1.568571113 -1.25133424 -1.449943855 -1.64983453 -1.635190539 -1.753919341 -1.516151223 -1.815533452 -1.773832699 -1.916089972 -1.559102031 -1.501428702 -1.822989759 -1.748381274 -1.357565656 -1.677503213 -1.744425408 -1.476037168 -1.322480575 -1.302028586 -1.799457037 -1.688207854 -1.195807804 -1.310701181 -1.263713656 -1.446106246 -1.449446863 -1.534395791 -1.399095113 -1.48239455 -1.940940401 -1.545328839 -1.974991911 -1.933220676 -1.86278935 -1.828601227 -1.578739248 -1.513931263 -1.747121963 -1.617484659 -1.837852923 -1.740155328 -1.639203242 -1.449646822 -1.717934419 -1.542440262 -2.049063294 -1.978967619 -1.715889547 -2.011598475 -1.984508651 -1.594724118 -1.923148235 -1.425430627 -1.668551915 -1.818780792 -1.475902147 -1.898815139 -1.822147509 -1.632295612 -1.950918967 -1.669498986 -1.577794803 
-0.2413598626 -0.1179662153 -0.5411757594 -0.2225522468 -0.2019379735 -0.1203938637 -0.08514378244 -0.2846147683 -0.05025237083 -0.3466497474 -0.4601003685 -0.5168596391 -0.3433904018 -0.3689704217 -0.4479540505 -0.1600978781 -0.2470110723 -0.1176248269 -0.3071289995 -0.450846287 -0.386008428 -0.1379314703 -0.1639154501 -0.3254643195 -0.139823852 -0.3821201737 -0.1316569384 -0.354920088 -0.3835486827 -0.0264365379 -0.5563213487 -0.3596189307 -0.1840098265 -0.3243066871 -0.02473581547 -0.3379684647 -0.4812783002 -0.2241165884 -0.5761184578 -0.1309643815 -0.1489893595 -0.3456601287 -0.3643532888 -0.3230679851 -0.09177200718 -0.3175881032 -0.1176765525 -0.2754582055 -0.4624231628 -0.2080970259 -0.4697579935 -0.530655823 -0.519354836 -0.5602983209 -0.2951483478 -0.4948014309 -0.2034647853 -0.1835704937 -0.2943830188 -0.1023942834 -0.5527973134 -0.1158700551 -0.007734198876 -0.4231126031 -0.3070435468 -0.4577211255 -0.5829834751 -0.6110846683 -0.7269175178 -0.2931561331 -0.4574979732 -0.5809584202 -0.2869624097 -0.01670141897 -0.03050645164 -0.3049240579 -0.3815027824 -0.2856457806 -0.424765278 -0.1618317719 -0.5219294378 -0.3935700478 -0.1501987934 -0.09489436365 -0.4406046146 -0.05861122572 -0.4352326796 -0.6028803003 -0.5598730611 -0.5091843813 -0.2991423316 -0.4734124976 -0.5853402475 -0.6318131868 -0.9664359678 -1.229382564 -1.020638483 -1.023189089 -1.018706912 -1.174676543 -0.9599542799 -0.6216340822 -0.4956176672 -0.1832872914 -0.2297570865 -0.1148140358 -0.06035375891 -0.475678141 -0.244130195 -0.1914780407 -0.2143978716 -0.3307359486 -0.05505384002 -0.1495690118 -0.09316020486 -0.2921385443 -0.4208079407 -0.2369875993 -0.3864154487 -0.0989920976 -0.01977578586 0.1569178192 0.1278973063 0.01716631139 0.09804294016 0.141628073 0.1633380199 0.01643193653 -0.104973112 -0.2885239756 -0.05835321829 0.1706365055 -0.01373322523 0.02043735373 0.06043676901 0.1370196314 -0.02396232347 -0.2593641046 -0.3726696475 -0.1982614365 -0.3626571558 -0.3669063949 -0.07547845882 -0.2557843247 0.07698442542 0.06297224854 -0.08559659925 0.02998569 -0.1044233412 -0.1603389207 -0.1338815036 -0.1543616737 -0.249872636 -0.01936243106 -0.04394468227 -0.01182172143 -0.06640483262 -0.03491794339 -0.09119584245 -0.2903600352 -0.246226516 -0.14163021 0.1734729046 0.2719367866 0.3760617791 0.1301728774 -0.2295737461 -0.623516613 -0.4617382383 -0.4687403838 -0.4077376628 -0.0968024121 0.1735445155 0.3545216103 0.2659953355 0.2282485371 0.1774340807 -0.1513997828 -0.08219752546 0.08276056953 -0.1098895447 -0.04926935016 -0.07571389951 -0.07538412119 0.07341033402 -0.01652227354 -0.02047770887 -0.2760169168 -0.5376698761 -0.6871565724 -0.351552757 0.1836878809 0.3727244872 0.406501498 -0.0456812641 -0.1437705331 -0.2867641743 -0.2843227878 -0.2222800368 0.04505498613 0.4340147728 0.3896804666 0.5054884917 0.2760156287 0.1517116504 0.1815731423 0.4661804596 0.4004645329 0.07994267861 0.3612204835 0.2725875213 0.08740405848 -0.09182722543 0.03890138813 0.1623993185 0.07331149297 -0.2112990798 -0.4977922497 -0.3957906579 -0.2109906405 0.3193550267 0.2706887303 0.1285480619 -0.0679701915 -0.585849436 -0.4375211372 -0.4521733989 -0.1868881175 0.3895612227 0.5414660453 0.3578255672 0.05484649024 0.1742583279 0.2044809219 0.1320134856 -0.1241646097 0.03271054554 0.09446767798 -0.1257265284 -0.2935153462 -0.2531094378 0.1224976333 0.3403804688 0.3974509804 0.07809147603 -0.3312452577 -0.3246549131 -0.2212834955 0.1553331264 0.3579456457 -0.1595095445 -0.4376283387 -0.09409436091 -0.2032631115 -0.6996321843 -0.4858124605 0.3065534629 0.3902302962 0.2638385769 0.1009095042 -0.02130102125 -0.07701363965 -0.3069652914 -0.4538819586 -0.5065305583 -0.01664720128 -0.2831945815 -0.5073202522 -0.4007002385 -0.02676970284 0.1149691822 0.3044775425 0.3950631787 0.02807961244 -0.436861853 -0.6211036223 -0.2462188109 0.07229944918 0.2207839929 -0.1415938711 -0.2600692753 -0.4873352026 -0.486760003 -0.573749124 -0.218475368 0.2908893414 0.1461531 0.1642863741 0.1016787643 -0.05961269702 -0.3586799583 -0.3236105201 -0.09910635488 0.0661181804 -0.1881549579 -0.3697755133 -0.3903198264 -0.2512200288 -0.221800537 0.06440180104 0.5069725101 0.1797844717 -0.4581074482 -0.8728248299 -0.2589030721 0.1793011072 0.1342389733 -0.3767216373 -0.1369089203 -0.3636784444 -0.2033682502 -0.6167443511 -0.2067889615 0.2703144778 0.2778749523 0.3565892947 0.3676764418 0.3301927337 0.1758540596 -0.004674835933 0.04029677255 0.2685631909 -0.01688371944 -0.2085788761 -0.3427093906 -0.542068047 -0.530252445 -0.1818057216 0.4979760323 0.2741742081 -0.4988715955 -0.9179812421 -0.4338257109 -0.1072599941 -0.1209551377 -0.5258476048 -0.2344696 -0.380451316 -0.2351933583 -0.2560269834 0.1113916505 0.09247577429 0.2150320886 0.2744528416 0.374281678 0.306360595 0.2868559191 -0.01216226164 0.2990766967 0.1397646376 0.05971174397 -0.3078769377 -0.6998935762 -0.5474689039 -0.4301142005 -0.2827110794 0.1531129374 0.3471653253 -0.0496724492 -0.9460189934 -0.2097939164 -0.1829780948 -0.4364756561 -0.2452682547 -0.622536712 -0.4680821892 -0.1962587699 -0.1943381979 0.3330262986 -0.08839666999 0.03661336841 0.1861544567 0.29939572 0.1630459314 0.2048092032 0.1240459076 -0.02890883508 -0.08883787315 -0.1408765708 -0.4329285222 -0.5657288425 -0.5119294334 -0.3459655298 -0.3217630692 -0.01592648948 0.3605655771 0.05005296764 -0.5344574064 -0.3681389463 0.02673557743 -0.3672282357 -0.2713084047 -0.4324097626 -0.3205214964 -0.0457051229 -0.08854069048 0.3704056969 -0.09656807171 -0.08367986622 0.1588842232 0.1718552252 0.1265071067 0.02581696798 -0.06043464214 -0.4159228381 -0.3192659053 -0.2050731905 0.08744734051 0.1536987626 0.07681135462 -0.09905483204 -0.3650986561 -0.1633000512 0.3375838927 0.3659939833 -0.314175107 -0.3957548814 -0.4169084846 -0.3250908921 -0.3996336667 -0.2852214823 -0.3707453918 -0.1016345093 0.1340540837 0.0835495734 0.0201256926 -0.0887034367 0.2422685019 0.07443019516 -0.2053104204 -0.06168588555 -0.2779387398 -0.6888823806 -1.06149351 -0.7295606021 -0.07666044374 0.1874856957 0.2377428677 0.007849798771 -0.1533517439 -0.02489704235 0.5911559559 0.7655225934 0.1276753058 -0.262937483 -0.4024180779 -0.4275185632 -0.2576250919 -0.1141211618 -0.3807738101 -0.3961341532 -0.2467260069 0.05519048331 -0.07958455151 -0.3232839071 0.3349841987 0.1124825768 -0.0105443786 0.08552438195 -0.04711583865 -0.5583992893 -1.163717066 -1.221068198 -0.8039595006 -0.5203526967 -0.4511144969 -0.2949127061 -0.4702555035 -0.05440149909 0.9224056492 1.166907779 0.5557774204 -0.1172149936 -0.6414791071 -0.3280388595 -0.1262764541 -0.1867902465 -0.2508995767 -0.2334144462 -0.5782555474 0.05305397354 -0.07318814736 -0.1192181324 0.2161802358 -0.1076504586 -0.1607566449 0.1243338637 0.2535197873 -0.3367828314 -1.114730923 -1.661372433 -1.968490546 -1.831091082 -1.670762867 -1.44004989 -1.286691653 -0.2735380973 1.230224139 1.215045436 0.4278225002 0.1262844699 -0.7343107684 -0.6822468738 -0.3586610396 -0.4056385028 -0.4827196835 -0.5083062533 -0.5629681427 -0.01401729271 -0.1166955994 -0.2077554846 0.144913581 0.111652766 0.2133416261 -0.09194921589 -0.2873847122 -0.7252608695 -1.387199701 -2.031988676 -2.28669767 -2.648321916 -2.983422145 -2.77763523 -2.489834746 -0.5610581052 1.353610039 1.200601413 0.7500211238 0.2181196688 -0.5464412321 -0.575287402 -0.2233346879 -0.383988934 -0.1817344644 -0.3894277537 -0.6294407717 0.08961132435 -0.1365052447 -0.295545751 0.01888790271 0.193439067 -0.03286399027 -0.1259644412 -0.5281520791 -0.9316941884 -1.555016728 -2.131845855 -2.056775174 -2.776072972 -3.993914303 -4.223375154 -3.189156451 -0.2652306147 1.886373425 1.625269956 0.8528990408 -0.006292828856 -0.5163518204 -0.4573127375 -0.1565101966 -0.234427047 -0.5616616424 -0.5343451609 -0.4717534891 -0.1828644893 -0.134820224 -0.326502344 0.05307391391 0.09377399775 0.1679262594 -0.2403207194 -0.5791270668 -0.9763682799 -1.198470675 -1.796735741 -2.271206563 -3.017231078 -3.743328238 -3.712337674 -2.010500299 0.783775642 2.331005812 1.908949297 0.7969124017 -0.3128545871 -0.8128551215 -0.1457106468 -0.2154925054 -0.1871420183 -0.5683345781 -0.4561535039 -0.6792502793 -0.1990838862 -0.188274727 -0.2584585452 -0.03824612259 0.1031369034 0.2868986018 -0.05895170481 -0.2956272747 -0.4549548714 -0.9868272268 -1.16542768 -1.21115179 -1.731256847 -2.189910267 -1.765609395 0.06931645647 1.920459384 2.459937392 1.421559637 0.05743348074 -0.8885905715 -0.4808243151 -0.5867593285 -0.4340064913 -0.4471640412 -0.3023643957 -0.2176819927 -0.3296419361 -0.3206068233 -0.07763113035 -0.2507579042 -0.1509368863 0.2101162299 0.5051213092 0.6436172944 0.5076494154 0.3837255316 0.2961409497 0.2775028209 0.2594946526 -0.1067091606 -0.0008711466484 1.044402163 1.846552707 2.036923219 1.567308371 0.6292051022 -0.5453103852 -0.5698539873 -0.1830321626 -0.3194120629 -0.4840721993 -0.2786444488 -0.03298177822 -0.3697893163 -0.1366284574 -0.4562777759 -0.0491165426 -0.1023782104 -0.1336314753 0.05058379209 0.2260087471 0.4755125627 0.6689270725 0.9535530069 1.122638783 1.164265658 1.308929445 1.021278103 1.351684943 1.667486052 1.756467195 1.136814693 0.3468601928 -0.3125364691 -0.3623253182 -0.3243739203 -0.4809995066 -0.2873349707 -0.445560303 -0.2349766448 -0.3958886862 -0.594230847 -0.3400396189 -0.1494551296 0.1297584909 0.1749128189 -0.2195887535 -0.3211207423 -0.05583534233 0.03360811279 0.2762370035 0.3397177234 0.6543308055 0.8615712851 0.9576463363 1.240949881 1.403718065 1.360210941 0.7497376981 0.09893316122 -0.1949548775 -0.5770947179 -0.09446249973 -0.2824207885 -0.2823373873 -0.4171552677 -0.3680799605 -0.4821138548 -0.1905194507 -0.151059492 -0.08619896168 -0.0007116126798 0.0007892016385 0.08305130848 -0.3627885658 -0.4650030843 -0.310321324 -0.06158996263 0.2343459334 0.2006166067 0.08588418989 0.1303273203 -0.01998378062 -0.01179421165 0.3524440601 0.304451296 0.01765282556 -0.02844893315 -0.01214547221 -0.216044385 -0.3594694505 -0.3322750668 -0.3711894351 -0.4664841827 -0.5114676639 -0.1277850955 -0.4010905688 -0.5401000995 -0.384416543 -0.356168903 -0.09325122275 -0.1997979366 -0.4915680646 -0.5933455393 -0.7265453028 -0.6389811263 -0.5999642331 -0.3491167815 -0.3249080245 -0.5312486003 -1.026325597 -0.6705713888 -0.4082847888 -0.05858818177 0.0270377615 0.4326933504 -0.09380781945 -0.1109137995 -0.1479334321 -0.3373167998 -0.1326468679 -0.4072960201 -0.4155109794 -0.4161438385 -0.3928769663 -0.3231942568 -0.5354595866 -0.4704439539 -0.3172251228 -0.5669171329 -0.5637261484 -0.4936839383 -0.1715672238 -0.4983297471 -0.5444589188 -0.4062643082 -0.4697495665 -0.3849183587 -0.3049857459 -0.4050857639 -0.340941329 -0.1379690231 -0.2711526024 -0.043986625 -0.1967670007 -0.0953054336 -0.3090528687 -0.08520434429 -0.5103280383 -0.114686353 -0.3690673419 
